{"learner":{"attributes":{"scikit_learn":"{\"_estimator_type\": \"classifier\"}"},"feature_names":["no_of_adults","no_of_children","no_of_weekend_nights","no_of_week_nights","required_car_parking_space","lead_time","arrival_year","arrival_month","arrival_date","repeated_guest","no_of_previous_cancellations","no_of_previous_bookings_not_canceled","avg_price_per_room","no_of_special_requests","type_of_meal_plan_Meal Plan 1","type_of_meal_plan_Meal Plan 2","type_of_meal_plan_Meal Plan 3","type_of_meal_plan_Not Selected","room_type_reserved_Room_Type 1","room_type_reserved_Room_Type 2","room_type_reserved_Room_Type 3","room_type_reserved_Room_Type 4","room_type_reserved_Room_Type 5","room_type_reserved_Room_Type 6","room_type_reserved_Room_Type 7","market_segment_type_Aviation","market_segment_type_Complementary","market_segment_type_Corporate","market_segment_type_Offline","market_segment_type_Online"],"feature_types":["int","int","int","int","float","int","int","int","int","int","int","int","float","int","float","float","float","float","float","float","float","float","float","float","float","float","float","float","float","float"],"gradient_booster":{"model":{"gbtree_model_param":{"num_parallel_tree":"1","num_trees":"100"},"iteration_indptr":[0,1,2,3,4,5,6,7,8,9,10,11,12,13,14,15,16,17,18,19,20,21,22,23,24,25,26,27,28,29,30,31,32,33,34,35,36,37,38,39,40,41,42,43,44,45,46,47,48,49,50,51,52,53,54,55,56,57,58,59,60,61,62,63,64,65,66,67,68,69,70,71,72,73,74,75,76,77,78,79,80,81,82,83,84,85,86,87,88,89,90,91,92,93,94,95,96,97,98,99,100],"tree_info":[0,0,0,0,0,0,0,0,0,0,0,0,0,0,0,0,0,0,0,0,0,0,0,0,0,0,0,0,0,0,0,0,0,0,0,0,0,0,0,0,0,0,0,0,0,0,0,0,0,0,0,0,0,0,0,0,0,0,0,0,0,0,0,0,0,0,0,0,0,0,0,0,0,0,0,0,0,0,0,0,0,0,0,0,0,0,0,0,0,0,0,0,0,0,0,0,0,0,0,0],"trees":[{"base_weights":[-3.0013809E-2,-4.6167466E-1,1.7250133E0,-6.353042E-3,-9.565327E-1,9.4955856E-1,2.7905145E0,-8.521921E-1,8.692614E-1,-8.067574E-1,-1.2792289E0,1.4098457E0,-7.217031E-2,2.9239135E0,-6.9606775E-1,-3.3285135E-1,3.2112274E-2,-1.3303953E-1,4.0485123E-1,-4.1808602E-1,-2.0714667E-1,-4.2390415E-1,-2.149637E-1,2.1140917E-1,8.543346E-1,3.2594666E-1,-1.803546E-1,8.992362E-1,-4.021034E-1,-4.1929764E-1,2.808929E-1],"categories":[],"categories_nodes":[],"categories_segments":[],"categories_sizes":[],"default_left":[0,0,0,0,0,0,0,0,0,0,0,0,0,0,0,0,0,0,0,0,0,0,0,0,0,0,0,0,0,0,0],"id":0,"left_children":[1,3,5,7,9,11,13,15,17,19,21,23,25,27,29,-1,-1,-1,-1,-1,-1,-1,-1,-1,-1,-1,-1,-1,-1,-1,-1],"loss_changes":[4.884336E3,1.1659185E3,1.0489407E3,1.9974242E3,1.18812256E2,3.472412E2,2.5114111E2,3.3870612E2,8.3600555E2,1.14780396E2,5.803125E1,5.140339E2,1.4175569E2,1.6584619E2,2.4837543E1,0E0,0E0,0E0,0E0,0E0,0E0,0E0,0E0,0E0,0E0,0E0,0E0,0E0,0E0,0E0,0E0],"parents":[2147483647,0,0,1,1,2,2,3,3,4,4,5,5,6,6,7,7,8,8,9,9,10,10,11,11,12,12,13,13,14,14],"right_children":[2,4,6,8,10,12,14,16,18,20,22,24,26,28,30,-1,-1,-1,-1,-1,-1,-1,-1,-1,-1,-1,-1,-1,-1,-1,-1],"split_conditions":[1.52E2,1E0,1.005E2,1E0,2E0,1E0,1.2E1,9.3E1,1.4E1,1E0,9E1,1E0,1E0,3E0,1E0,-3.3285135E-1,3.2112274E-2,-1.3303953E-1,4.0485123E-1,-4.1808602E-1,-2.0714667E-1,-4.2390415E-1,-2.149637E-1,2.1140917E-1,8.543346E-1,3.2594666E-1,-1.803546E-1,8.992362E-1,-4.021034E-1,-4.1929764E-1,2.808929E-1],"split_indices":[5,13,12,29,13,13,7,5,5,29,5,29,2,13,13,0,0,0,0,0,0,0,0,0,0,0,0,0,0,0,0],"split_type":[0,0,0,0,0,0,0,0,0,0,0,0,0,0,0,0,0,0,0,0,0,0,0,0,0,0,0,0,0,0,0],"sum_hessian":[6.445266E3,5.1735366E3,1.2717296E3,2.6949297E3,2.4786067E3,7.3714124E2,5.345884E2,1.370785E3,1.3241445E3,1.6952693E3,7.8333746E2,5.079367E2,2.292045E2,5.150438E2,1.9544569E1,1.0807258E3,2.9005917E2,3.546895E2,9.694551E2,2.7851013E2,1.4167592E3,6.3164496E2,1.516925E2,3.4180786E2,1.6612885E2,7.151536E1,1.5768915E2,5.0660413E2,8.4397E0,1.3770038E1,5.774532E0],"tree_param":{"num_deleted":"0","num_feature":"30","num_nodes":"31","size_leaf_vector":"1"}},{"base_weights":[-4.5404978E-2,-3.626949E-1,1.0838788E0,-2.1723911E-2,-7.702876E-1,5.036148E-1,1.6230687E0,-6.786775E-1,5.56343E-1,-1.1781664E0,-6.558319E-1,-5.941006E-1,7.490075E-1,1.6837573E0,-4.2826605E-1,-2.8992108E-1,-1.1732093E-2,-6.199291E-2,2.7174714E-1,-3.7800795E-1,-3.1143117E-1,-1.4675668E-1,-3.090458E-1,-3.4571248E-1,2.4208747E-1,3.791975E-1,-8.894831E-2,1.19990245E-1,5.3368753E-1,-3.2971716E-1,2.3578757E-1],"categories":[],"categories_nodes":[],"categories_segments":[],"categories_sizes":[],"default_left":[0,0,0,0,0,0,0,0,0,0,0,0,0,0,0,0,0,0,0,0,0,0,0,0,0,0,0,0,0,0,0],"id":1,"left_children":[1,3,5,7,9,11,13,15,17,19,21,23,25,27,29,-1,-1,-1,-1,-1,-1,-1,-1,-1,-1,-1,-1,-1,-1,-1,-1],"loss_changes":[2.2288706E3,6.7485657E2,4.2606848E2,1.004896E3,1.0248694E2,1.7785922E2,8.871069E1,2.2787811E2,3.755187E2,4.234558E0,1.0737616E2,9.548822E1,2.9043692E2,8.321301E1,1.8054941E1,0E0,0E0,0E0,0E0,0E0,0E0,0E0,0E0,0E0,0E0,0E0,0E0,0E0,0E0,0E0,0E0],"parents":[2147483647,0,0,1,1,2,2,3,3,4,4,5,5,6,6,7,7,8,8,9,9,10,10,11,11,12,12,13,13,14,14],"right_children":[2,4,6,8,10,12,14,16,18,20,22,24,26,28,30,-1,-1,-1,-1,-1,-1,-1,-1,-1,-1,-1,-1,-1,-1,-1,-1],"split_conditions":[1.52E2,1E0,9.99E1,1E0,1E1,2E0,1.2E1,7.5E1,2.1E1,5E0,2E0,1E0,1E0,2.018E3,1E0,-2.8992108E-1,-1.1732093E-2,-6.199291E-2,2.7174714E-1,-3.7800795E-1,-3.1143117E-1,-1.4675668E-1,-3.090458E-1,-3.4571248E-1,2.4208747E-1,3.791975E-1,-8.894831E-2,1.19990245E-1,5.3368753E-1,-3.2971716E-1,2.3578757E-1],"split_indices":[5,13,12,29,5,0,7,5,5,5,13,29,13,6,13,0,0,0,0,0,0,0,0,0,0,0,0,0,0,0,0],"split_type":[0,0,0,0,0,0,0,0,0,0,0,0,0,0,0,0,0,0,0,0,0,0,0,0,0,0,0,0,0,0,0],"sum_hessian":[6.218406E3,4.8549976E3,1.3634084E3,2.6441182E3,2.2108792E3,6.5762317E2,7.057853E2,1.2375315E3,1.4065868E3,4.8241895E2,1.7284602E3,1.198915E2,5.377317E2,6.856787E2,2.010659E1,8.531918E2,3.8433966E2,4.4200677E2,9.645801E2,2.9942365E2,1.829953E2,1.1976072E3,5.30853E2,8.585765E1,3.4033855E1,3.6013205E2,1.7759964E2,4.7696083E1,6.379826E2,1.3012668E1,7.093922E0],"tree_param":{"num_deleted":"0","num_feature":"30","num_nodes":"31","size_leaf_vector":"1"}},{"base_weights":[-4.2007804E-2,-4.049122E-1,5.7007587E-1,-1.5009281E-1,-7.119933E-1,-5.409697E-2,7.898758E-1,-7.5096184E-1,2.9033858E-1,-5.721081E-1,-1.0690863E0,-3.5595432E-1,4.2093897E-1,3.1247866E-1,1.0987831E0,-3.0966848E-1,-1.06675595E-1,-3.1759617E-1,1.437895E-1,-3.576817E-1,-1.3800192E-1,-3.5587114E-1,-1.1166307E-1,-5.478836E-2,-4.8670617E-1,2.4136594E-1,3.4975742E-3,2.0845573E-1,-7.215154E-2,2.1927752E-1,4.1914907E-1],"categories":[],"categories_nodes":[],"categories_segments":[],"categories_sizes":[],"default_left":[0,0,0,0,0,0,0,0,0,0,0,0,0,0,0,0,0,0,0,0,0,0,0,0,0,0,0,0,0,0,0],"id":2,"left_children":[1,3,5,7,9,11,13,15,17,19,21,23,25,27,29,-1,-1,-1,-1,-1,-1,-1,-1,-1,-1,-1,-1,-1,-1,-1,-1],"loss_changes":[1.2876326E3,2.846524E2,2.9606195E2,5.268662E2,8.181134E1,8.086174E1,2.3499329E2,9.326773E1,2.9340634E2,8.202591E1,3.7381165E1,7.536839E1,3.439978E1,1.3302469E2,1.0528113E2,0E0,0E0,0E0,0E0,0E0,0E0,0E0,0E0,0E0,0E0,0E0,0E0,0E0,0E0,0E0,0E0],"parents":[2147483647,0,0,1,1,2,2,3,3,4,4,5,5,6,6,7,7,8,8,9,9,10,10,11,11,12,12,13,13,14,14],"right_children":[2,4,6,8,10,12,14,16,18,20,22,24,26,28,30,-1,-1,-1,-1,-1,-1,-1,-1,-1,-1,-1,-1,-1,-1,-1,-1],"split_conditions":[9.9E1,1E0,8.5E1,1E0,2E0,1E0,1.51E2,1E0,2.018E3,1E0,4E0,1.2E1,1E0,1E0,1.005E2,-3.0966848E-1,-1.06675595E-1,-3.1759617E-1,1.437895E-1,-3.576817E-1,-1.3800192E-1,-3.5587114E-1,-1.1166307E-1,-5.478836E-2,-4.8670617E-1,2.4136594E-1,3.4975742E-3,2.0845573E-1,-7.215154E-2,2.1927752E-1,4.1914907E-1],"split_indices":[5,13,12,29,13,29,5,2,6,29,3,7,13,13,12,0,0,0,0,0,0,0,0,0,0,0,0,0,0,0,0],"split_type":[0,0,0,0,0,0,0,0,0,0,0,0,0,0,0,0,0,0,0,0,0,0,0,0,0,0,0,0,0,0,0],"sum_hessian":[5.794768E3,3.6380857E3,2.1566824E3,1.9890435E3,1.6490424E3,5.6187164E2,1.5948109E3,8.409932E2,1.1480502E3,1.1867537E3,4.622887E2,3.4371298E2,2.1815865E2,6.273271E2,9.6748376E2,4.904686E2,3.5052463E2,1.4048914E2,1.00756104E3,1.8020354E2,1.0065501E3,3.951572E2,6.713149E1,3.0334033E2,4.0372627E1,1.1211174E2,1.060469E2,3.7072437E2,2.5660272E2,4.3484055E2,5.326432E2],"tree_param":{"num_deleted":"0","num_feature":"30","num_nodes":"31","size_leaf_vector":"1"}},{"base_weights":[-3.7427507E-2,-3.4041947E-1,4.113E-1,-5.3324413E-1,3.926204E-2,1.5207809E-1,7.322428E-1,-3.3147472E-1,-7.8289557E-1,5.2754253E-1,-4.368076E-1,-3.4363985E-2,6.605801E-1,3.904025E-1,1.1822433E0,-3.678754E-1,-6.939279E-2,-3.2016608E-1,-1.6791745E-1,-1.9186336E-1,2.1311016E-1,-4.8777796E-2,-3.0721602E-1,-1.2335849E-1,8.086465E-2,-1.8450382E-1,2.8401035E-1,-4.1070472E-2,1.7021976E-1,3.7865126E-1,-2.2970623E-1],"categories":[],"categories_nodes":[],"categories_segments":[],"categories_sizes":[],"default_left":[0,0,0,0,0,0,0,0,0,0,0,0,0,0,0,0,0,0,0,0,0,0,0,0,0,0,0,0,0,0,0],"id":3,"left_children":[1,3,5,7,9,11,13,15,17,19,21,23,25,27,29,-1,-1,-1,-1,-1,-1,-1,-1,-1,-1,-1,-1,-1,-1,-1,-1],"loss_changes":[7.349098E2,2.3624274E2,1.8114883E2,1.0753107E2,2.5306265E2,1.1440811E2,1.4924567E2,1.0593779E2,6.004602E1,1.15119736E2,8.860413E1,1.01324646E2,1.187384E2,5.183583E1,6.630237E1,0E0,0E0,0E0,0E0,0E0,0E0,0E0,0E0,0E0,0E0,0E0,0E0,0E0,0E0,0E0,0E0],"parents":[2147483647,0,0,1,1,2,2,3,3,4,4,5,5,6,6,7,7,8,8,9,9,10,10,11,11,12,12,13,13,14,14],"right_children":[2,4,6,8,10,12,14,16,18,20,22,24,26,28,30,-1,-1,-1,-1,-1,-1,-1,-1,-1,-1,-1,-1,-1,-1,-1,-1],"split_conditions":[9.2E1,1.161E2,1E2,9E0,1E0,2.32E2,1.66E2,2E0,2.018E3,4E0,2E0,1E0,2E0,7E0,1.2E1,-3.678754E-1,-6.939279E-2,-3.2016608E-1,-1.6791745E-1,-1.9186336E-1,2.1311016E-1,-4.8777796E-2,-3.0721602E-1,-1.2335849E-1,8.086465E-2,-1.8450382E-1,2.8401035E-1,-4.1070472E-2,1.7021976E-1,3.7865126E-1,-2.2970623E-1],"split_indices":[5,12,12,7,13,5,5,7,6,5,13,29,0,8,7,0,0,0,0,0,0,0,0,0,0,0,0,0,0,0,0],"split_type":[0,0,0,0,0,0,0,0,0,0,0,0,0,0,0,0,0,0,0,0,0,0,0,0,0,0,0,0,0,0,0],"sum_hessian":[5.403276E3,3.2255474E3,2.1777283E3,2.1388892E3,1.0866583E3,1.2055186E3,9.7220984E2,1.1841675E3,9.5472156E2,5.36396E2,5.502623E2,8.8277997E2,3.2273856E2,5.535649E2,4.1864493E2,1.18083824E2,1.0660837E3,4.1817496E2,5.365466E2,7.230821E1,4.640878E2,3.7597656E2,1.7428575E2,3.9395273E2,4.8882724E2,5.8918224E1,2.638203E2,1.3917245E2,4.1439243E2,4.0248233E2,1.6162619E1],"tree_param":{"num_deleted":"0","num_feature":"30","num_nodes":"31","size_leaf_vector":"1"}},{"base_weights":[-3.1078843E-2,-3.4627384E-1,2.3645496E-1,-7.5986207E-1,-1.9908014E-1,2.678555E-1,-1.4725081E0,-7.9137915E-1,1.066997E0,1.2712675E-1,-5.0682265E-1,9.480362E-2,5.908217E-1,-3.5830733E-1,-5.433088E-1,-2.4294642E-1,1.0681355E0,-2.8194615E-1,7.977179E-2,-1.0450072E-1,-2.9076102E-1,-1.9661346E-2,1.2979959E-1,8.945032E-2,3.3530664E-1],"categories":[],"categories_nodes":[],"categories_segments":[],"categories_sizes":[],"default_left":[0,0,0,0,0,0,0,0,0,0,0,0,0,0,0,0,0,0,0,0,0,0,0,0,0],"id":4,"left_children":[1,3,5,7,9,11,13,15,-1,17,19,21,23,-1,-1,-1,-1,-1,-1,-1,-1,-1,-1,-1,-1],"loss_changes":[4.3068927E2,1.4259613E2,1.4864606E2,8.649725E1,1.7380682E2,1.5161104E2,2.5449219E0,5.195865E1,0E0,1.2476972E2,6.493857E1,9.5812744E1,1.4561682E2,0E0,0E0,0E0,0E0,0E0,0E0,0E0,0E0,0E0,0E0,0E0,0E0],"parents":[2147483647,0,0,1,1,2,2,3,3,4,4,5,5,6,6,7,7,9,9,10,10,11,11,12,12],"right_children":[2,4,6,8,10,12,14,16,-1,18,20,22,24,-1,-1,-1,-1,-1,-1,-1,-1,-1,-1,-1,-1],"split_conditions":[6E1,1E0,3E0,1.9888E2,1E0,1.66E2,1.51E2,5E0,1.066997E0,2.018E3,2E0,1.134E2,1E2,-3.5830733E-1,-5.433088E-1,-2.4294642E-1,1.0681355E0,-2.8194615E-1,7.977179E-2,-1.0450072E-1,-2.9076102E-1,-1.9661346E-2,1.2979959E-1,8.945032E-2,3.3530664E-1],"split_indices":[5,29,13,12,13,5,5,2,0,6,13,12,12,0,0,0,0,0,0,0,0,0,0,0,0],"split_type":[0,0,0,0,0,0,0,0,0,0,0,0,0,0,0,0,0,0,0,0,0,0,0,0,0],"sum_hessian":[5.105502E3,2.3438271E3,2.7616746E3,6.1411383E2,1.7297133E3,2.712675E3,4.8999516E1,6.1047314E2,3.6407118E0,8.399518E2,8.897615E2,1.7671132E3,9.455619E2,2.938396E1,1.9615555E1,6.0870746E2,1.7656729E0,9.601415E1,7.439376E2,6.639406E2,2.2582086E2,1.198933E3,5.6818024E2,6.08905E2,3.3665686E2],"tree_param":{"num_deleted":"0","num_feature":"30","num_nodes":"25","size_leaf_vector":"1"}},{"base_weights":[-2.6193423E-2,-5.780497E-1,6.732029E-2,-6.898331E-1,-2.9412596E-2,2.3794174E-1,-1.929922E-1,-7.209004E-1,8.260358E-1,2.3936512E0,-3.2774174E-1,-6.932641E-2,5.012043E-1,-2.786702E-1,2.8793898E-1,-2.756989E-1,-1.593141E-1,7.4071586E-1,-2.1874966E-1,-2.450851E-1,1.3526404E0,-1.5774763E-1,2.2809207E-1,4.0762755E-3,-4.0203887E-1,1.1112406E-1,3.301323E-1,-2.8797546E-1,-6.107853E-2,2.9908985E-1,-6.599049E-2],"categories":[],"categories_nodes":[],"categories_segments":[],"categories_sizes":[],"default_left":[0,0,0,0,0,0,0,0,0,0,0,0,0,0,0,0,0,0,0,0,0,0,0,0,0,0,0,0,0,0,0],"id":5,"left_children":[1,3,5,7,9,11,13,15,17,19,21,23,25,27,29,-1,-1,-1,-1,-1,-1,-1,-1,-1,-1,-1,-1,-1,-1,-1,-1],"loss_changes":[2.504045E2,4.3098495E1,1.8434067E2,2.8099854E1,8.756392E1,2.0282771E2,6.779845E1,2.1055847E1,3.296176E1,9.387056E1,2.3626398E1,1.2199917E2,1.05420074E2,7.117394E1,8.988883E1,0E0,0E0,0E0,0E0,0E0,0E0,0E0,0E0,0E0,0E0,0E0,0E0,0E0,0E0,0E0,0E0],"parents":[2147483647,0,0,1,1,2,2,3,3,4,4,5,5,6,6,7,7,8,8,9,9,10,10,11,11,12,12,13,13,14,14],"right_children":[2,4,6,8,10,12,14,16,18,20,22,24,26,28,30,-1,-1,-1,-1,-1,-1,-1,-1,-1,-1,-1,-1,-1,-1,-1,-1],"split_conditions":[1E1,2E0,1E0,2.05E2,6.152E1,1E0,1.82E2,3E0,1E0,6E1,5E0,1.2E1,1.5E2,1E0,1E0,-2.756989E-1,-1.593141E-1,7.4071586E-1,-2.1874966E-1,-2.450851E-1,1.3526404E0,-1.5774763E-1,2.2809207E-1,4.0762755E-3,-4.0203887E-1,1.1112406E-1,3.301323E-1,-2.8797546E-1,-6.107853E-2,2.9908985E-1,-6.599049E-2],"split_indices":[5,2,13,12,12,29,5,5,13,12,3,7,5,29,2,0,0,0,0,0,0,0,0,0,0,0,0,0,0,0,0],"split_type":[0,0,0,0,0,0,0,0,0,0,0,0,0,0,0,0,0,0,0,0,0,0,0,0,0,0,0,0,0,0,0],"sum_hessian":[4.8504697E3,7.020792E2,4.1483906E3,5.830309E2,1.1904835E2,2.5059531E3,1.6424376E3,5.718357E2,1.1195187E1,1.2280575E1,1.0676777E2,1.1566731E3,1.3492799E3,1.3944386E3,2.4799896E2,2.7796375E2,2.9387192E2,5.1581583E0,6.0370283E0,5.1210527E0,7.1595216E0,9.076108E1,1.6006693E1,1.0867566E3,6.9916504E1,1.1088729E3,2.4040701E2,1.3724661E2,1.257192E3,1.0310451E2,1.4489447E2],"tree_param":{"num_deleted":"0","num_feature":"30","num_nodes":"31","size_leaf_vector":"1"}},{"base_weights":[-2.1562716E-2,3.6532313E-2,-7.349261E-1,-1.1580486E0,6.8805546E-2,-1.3201152E0,-4.4783393E-1,-1.198805E0,-4.473862E-1,9.9941835E-2,-1.112769E0,-1.4228399E0,-3.3914822E-1,-1.2280444E0,-1.7486985E-1,-3.6658812E-1,-1.2618747E-1,4.1561234E-1,-2.8236306E-1,7.324853E-2,-4.020047E-2,-4.036002E-1,1.615709E-1,-3.1291986E-1,-4.546887E-1,-3.7159908E-1,-1.0288694E-1,-1.5696774E-1,6.519141E-2],"categories":[],"categories_nodes":[],"categories_segments":[],"categories_sizes":[],"default_left":[0,0,0,0,0,0,0,0,0,0,0,0,0,0,0,0,0,0,0,0,0,0,0,0,0,0,0,0,0],"id":6,"left_children":[1,3,5,7,9,11,13,15,17,19,21,23,-1,25,27,-1,-1,-1,-1,-1,-1,-1,-1,-1,-1,-1,-1,-1,-1],"loss_changes":[1.9221045E2,1.6543546E2,5.8086014E1,2.7332E0,1.5378864E2,6.206207E-1,5.0008522E1,1.3989868E0,8.28924E0,1.3737994E2,4.1944366E1,8.9852905E-1,0E0,1.4810944E-1,2.4140211E1,0E0,0E0,0E0,0E0,0E0,0E0,0E0,0E0,0E0,0E0,0E0,0E0,0E0,0E0],"parents":[2147483647,0,0,1,1,2,2,3,3,4,4,5,5,6,6,7,7,8,8,9,9,10,10,11,11,13,13,14,14],"right_children":[2,4,6,8,10,12,14,16,18,20,22,24,-1,26,28,-1,-1,-1,-1,-1,-1,-1,-1,-1,-1,-1,-1,-1,-1],"split_conditions":[1.2E1,2E0,2.5E1,1E0,1E0,1E0,1E0,2E0,6.28E1,1E0,1.5E2,1E0,-3.3914822E-1,1.7E2,1E2,-3.6658812E-1,-1.2618747E-1,4.1561234E-1,-2.8236306E-1,7.324853E-2,-4.020047E-2,-4.036002E-1,1.615709E-1,-3.1291986E-1,-4.546887E-1,-3.7159908E-1,-1.0288694E-1,-1.5696774E-1,6.519141E-2],"split_indices":[7,7,5,27,4,13,29,1,12,13,5,29,0,12,5,0,0,0,0,0,0,0,0,0,0,0,0,0,0],"split_type":[0,0,0,0,0,0,0,0,0,0,0,0,0,0,0,0,0,0,0,0,0,0,0,0,0,0,0,0,0],"sum_hessian":[4.636315E3,4.2880522E3,3.4826245E2,1.1188252E2,4.17617E3,1.1343864E2,2.3482382E2,1.0516447E2,6.7180552E0,4.0698386E3,1.0633105E2,6.936016E1,4.407848E1,5.9955296E1,1.7486853E2,1.0157185E2,3.5926142E0,1.0427243E0,5.675331E0,2.5176997E3,1.552139E3,9.336707E1,1.2963969E1,1.6022682E1,5.3337475E1,5.884974E1,1.1055589E0,9.243095E1,8.2437584E1],"tree_param":{"num_deleted":"0","num_feature":"30","num_nodes":"29","size_leaf_vector":"1"}},{"base_weights":[-1.9429674E-2,-2.1211573E-1,1.4964502E-1,-1.085199E-1,-7.587348E-1,-1.5541929E-1,2.6495883E-1,-2.7866345E-2,-8.5875905E-1,-8.016797E-1,5.706001E-1,-2.367609E-1,6.3595504E-1,1.4406593E-1,6.7774194E-1,-1.6691713E-1,2.9941436E-2,-3.2336828E-1,7.363481E-2,-3.391225E-1,-1.3869926E-1,8.487855E-3,-1.4930466E-1,7.851342E-2,4.8001125E-1,9.090121E-2,-2.4461236E-2,-6.1109588E-2,2.4409463E-1],"categories":[],"categories_nodes":[],"categories_segments":[],"categories_sizes":[],"default_left":[0,0,0,0,0,0,0,0,0,0,0,0,0,0,0,0,0,0,0,0,0,0,0,0,0,0,0,0,0],"id":7,"left_children":[1,3,5,7,9,11,13,15,17,19,-1,21,23,25,27,-1,-1,-1,-1,-1,-1,-1,-1,-1,-1,-1,-1,-1,-1],"loss_changes":[1.4793492E2,1.2009361E2,8.512668E1,1.0800136E2,4.0141388E1,4.2900078E1,8.751126E1,1.0889661E2,4.2188286E1,3.665738E1,0E0,4.1711987E1,2.201202E1,4.8760643E1,4.7774582E1,0E0,0E0,0E0,0E0,0E0,0E0,0E0,0E0,0E0,0E0,0E0,0E0,0E0,0E0],"parents":[2147483647,0,0,1,1,2,2,3,3,4,4,5,5,6,6,7,7,8,8,9,9,11,11,12,12,13,13,14,14],"right_children":[2,4,6,8,10,12,14,16,18,20,-1,22,24,26,28,-1,-1,-1,-1,-1,-1,-1,-1,-1,-1,-1,-1,-1,-1],"split_conditions":[6.6E1,1E0,8.443E1,2E0,2.156E2,3.01E2,1.93E2,5E0,4E0,1E0,5.706001E-1,1.27E2,2.3E1,1E0,2E0,-1.6691713E-1,2.9941436E-2,-3.2336828E-1,7.363481E-2,-3.391225E-1,-1.3869926E-1,8.487855E-3,-1.4930466E-1,7.851342E-2,4.8001125E-1,9.090121E-2,-2.4461236E-2,-6.1109588E-2,2.4409463E-1],"split_indices":[5,28,12,13,12,5,5,5,3,2,0,5,8,13,0,0,0,0,0,0,0,0,0,0,0,0,0,0,0],"split_type":[0,0,0,0,0,0,0,0,0,0,0,0,0,0,0,0,0,0,0,0,0,0,0,0,0,0,0,0,0],"sum_hessian":[4.538925E3,2.1212202E3,2.4177043E3,1.7842632E3,3.3695697E2,6.6310455E2,1.7545999E3,1.6120038E3,1.7225938E2,3.3229242E2,4.6645722E0,6.019353E2,6.1169247E1,1.3581761E3,3.9642368E2,3.1298254E2,1.2990212E3,1.4375449E2,2.8504894E1,1.6760327E2,1.6468913E2,2.9904532E2,3.0288998E2,4.498006E1,1.6189186E1,7.9661566E2,5.6156055E2,5.2891335E1,3.4353235E2],"tree_param":{"num_deleted":"0","num_feature":"30","num_nodes":"29","size_leaf_vector":"1"}},{"base_weights":[-1.6876502E-2,2.7424403E-2,-6.1792153E-1,5.0922062E-2,-1.033744E0,-3.6760977E-1,-3.6723098E-1,-8.7031595E-2,2.5129133E-1,-1.249665E0,3.628231E-1,-1.1590976E0,-1.4735152E-1,-3.4679985E-1,-1.7440362E-2,3.835605E-2,3.1899893E-1,-3.909786E-1,1.6053748E-1,-2.022538E-1,2.6905423E-1,-3.5415602E-1,-1.264785E-1,-5.644659E-2,6.0091233E-1],"categories":[],"categories_nodes":[],"categories_segments":[],"categories_sizes":[],"default_left":[0,0,0,0,0,0,0,0,0,0,0,0,0,0,0,0,0,0,0,0,0,0,0,0,0],"id":8,"left_children":[1,3,5,7,9,-1,11,13,15,17,19,21,23,-1,-1,-1,-1,-1,-1,-1,-1,-1,-1,-1,-1],"loss_changes":[1.16610245E2,1.01766304E2,4.533043E1,1.1036027E2,2.7115013E1,0E0,3.71308E1,7.298221E1,1.6304056E2,8.044182E0,7.590267E0,2.3559189E-1,1.5190001E1,0E0,0E0,0E0,0E0,0E0,0E0,0E0,0E0,0E0,0E0,0E0,0E0],"parents":[2147483647,0,0,1,1,2,2,3,3,4,4,6,6,7,7,8,8,9,9,10,10,11,11,12,12],"right_children":[2,4,6,8,10,-1,12,14,16,18,20,22,24,-1,-1,-1,-1,-1,-1,-1,-1,-1,-1,-1,-1],"split_conditions":[1.2E1,1E0,2.5E1,1.053E2,1.5E2,-3.6760977E-1,1E0,4.8E1,1.51E2,2.05E2,1E2,3.1E1,9E0,-3.4679985E-1,-1.7440362E-2,3.835605E-2,3.1899893E-1,-3.909786E-1,1.6053748E-1,-2.022538E-1,2.6905423E-1,-3.5415602E-1,-1.264785E-1,-5.644659E-2,6.0091233E-1],"split_indices":[7,4,5,12,5,0,29,12,5,12,12,8,3,0,0,0,0,0,0,0,0,0,0,0,0],"split_type":[0,0,0,0,0,0,0,0,0,0,0,0,0,0,0,0,0,0,0,0,0,0,0,0,0],"sum_hessian":[4.3777886E3,4.0781565E3,2.996321E2,3.9907407E3,8.741575E1,8.639699E1,2.1323512E2,2.363822E3,1.6269188E3,7.58014E1,1.1614348E1,4.541338E1,1.6782175E2,6.1191864E1,2.3026301E3,1.4132485E3,2.1367027E2,7.3853386E1,1.9480119E0,3.858744E0,7.7556047E0,4.3547733E1,1.8656462E0,1.6559213E2,2.2296145E0],"tree_param":{"num_deleted":"0","num_feature":"30","num_nodes":"25","size_leaf_vector":"1"}},{"base_weights":[-1.3012615E-2,4.11792E-3,-1.2898062E0,-1.0088423E0,2.5054112E-2,-3.2523206E-1,-4.9654618E-1,-3.551792E-1,-7.684356E-1,1.5960114E-2,2.4617116E0,9.87385E-3,-3.5779613E-1,-9.6144974E-2,2.312588E-2,5.417425E-1,9.439166E-1],"categories":[],"categories_nodes":[],"categories_segments":[],"categories_sizes":[],"default_left":[0,0,0,0,0,0,0,0,0,0,0,0,0,0,0,0,0],"id":9,"left_children":[1,3,5,7,9,-1,-1,-1,11,13,15,-1,-1,-1,-1,-1,-1],"loss_changes":[9.362063E1,8.961532E1,2.4643784E0,2.6920166E0,9.169607E1,0E0,0E0,0E0,1.3265793E1,8.486742E1,1.2281189E0,0E0,0E0,0E0,0E0,0E0,0E0],"parents":[2147483647,0,0,1,1,2,2,3,3,4,4,8,8,9,9,10,10],"right_children":[2,4,6,8,10,-1,-1,-1,12,14,16,-1,-1,-1,-1,-1,-1],"split_conditions":[3E0,2E0,1.51E2,2.5E1,1E1,-3.2523206E-1,-4.9654618E-1,-3.551792E-1,4.6E1,2.018E3,1E0,9.87385E-3,-3.5779613E-1,-9.6144974E-2,2.312588E-2,5.417425E-1,9.439166E-1],"split_indices":[13,7,5,5,3,0,0,0,5,6,13,0,0,0,0,0,0],"split_type":[0,0,0,0,0,0,0,0,0,0,0,0,0,0,0,0,0],"sum_hessian":[4.279114E3,4.2234453E3,5.5668514E1,8.456839E1,4.138877E3,3.815415E1,1.7514366E1,4.666069E1,3.7907696E1,4.12449E3,1.4386709E1,1.3440672E1,2.4467024E1,6.3348627E2,3.491004E3,9.205514E0,5.1811953E0],"tree_param":{"num_deleted":"0","num_feature":"30","num_nodes":"17","size_leaf_vector":"1"}},{"base_weights":[-1.0869487E-2,-2.7707785E-2,1.0114771E0,-7.1265385E-2,4.0273038E-1,1.4432061E0,3.7805974E-1,9.695449E-3,-3.2873848E-1,-7.897056E-1,5.115865E-1,1.5963053E0,-5.499105E-1,-3.5540294E-2,1.7777532E0,-1.8606803E-1,1.6677694E-2,-1.812847E-1,-2.999034E-2,-4.6649554E-1,2.5101694E-1,-7.9039514E-2,1.9660546E-1,3.097465E-1,5.147039E-1,-2.7683234E-1,1.5945487E-2,-2.3533897E-1,9.672532E-2,1.0949111E-3,7.527353E-1],"categories":[],"categories_nodes":[],"categories_segments":[],"categories_sizes":[],"default_left":[0,0,0,0,0,0,0,0,0,0,0,0,0,0,0,0,0,0,0,0,0,0,0,0,0,0,0,0,0,0,0],"id":10,"left_children":[1,3,5,7,9,11,13,15,17,19,21,23,25,27,29,-1,-1,-1,-1,-1,-1,-1,-1,-1,-1,-1,-1,-1,-1,-1,-1],"loss_changes":[7.303552E1,7.827295E1,1.825386E1,7.901976E1,5.0203552E1,1.3244255E1,1.6978537E1,8.343821E1,5.7102882E1,4.1736183E1,3.941281E1,7.7890015E-1,8.6634827E-1,6.56222E0,8.663815E0,0E0,0E0,0E0,0E0,0E0,0E0,0E0,0E0,0E0,0E0,0E0,0E0,0E0,0E0,0E0,0E0],"parents":[2147483647,0,0,1,1,2,2,3,3,4,4,5,5,6,6,7,7,8,8,9,9,10,10,11,11,12,12,13,13,14,14],"right_children":[2,4,6,8,10,12,14,16,18,20,22,24,26,28,30,-1,-1,-1,-1,-1,-1,-1,-1,-1,-1,-1,-1,-1,-1,-1,-1],"split_conditions":[1.9888E2,2.26E2,1E0,1E0,2.018E3,1.2E1,8.7E1,3E0,1E0,8.84E1,2E0,2.05E2,3.2E1,1.1E1,2.05E2,-1.8606803E-1,1.6677694E-2,-1.812847E-1,-2.999034E-2,-4.6649554E-1,2.5101694E-1,-7.9039514E-2,1.9660546E-1,3.097465E-1,5.147039E-1,-2.7683234E-1,1.5945487E-2,-2.3533897E-1,9.672532E-2,1.0949111E-3,7.527353E-1],"split_indices":[12,5,13,28,6,7,5,5,2,12,0,12,5,8,12,0,0,0,0,0,0,0,0,0,0,0,0,0,0,0,0],"split_type":[0,0,0,0,0,0,0,0,0,0,0,0,0,0,0,0,0,0,0,0,0,0,0,0,0,0,0,0,0,0,0],"sum_hessian":[4.2400273E3,4.1722817E3,6.77456E1,3.7896296E3,3.8265198E2,3.952645E1,2.8219149E1,2.883799E3,9.0583057E2,3.1486532E1,3.5116547E2,3.689174E1,2.6347096E0,2.2534857E1,5.684291E0,1.9499745E2,2.6888018E3,4.1016464E2,4.9566595E2,2.1441597E1,1.0044935E1,5.481574E1,2.9634973E2,8.132117E0,2.8759623E1,1.3004892E0,1.3342204E0,6.902303E0,1.5632554E1,1.95265E0,3.731641E0],"tree_param":{"num_deleted":"0","num_feature":"30","num_nodes":"31","size_leaf_vector":"1"}},{"base_weights":[-8.257232E-3,2.733517E-2,-5.343388E-1,1.3745107E-1,-1.4865012E-1,-3.502711E-1,-3.2040286E-1,-8.9300506E-2,2.5637832E-1,-4.122053E-1,5.1323837E-3,-1.1096091E0,-1.5310726E-1,-7.3287785E-2,3.8864E-2,5.575185E-2,2.4594465E-1,-1.4984949E-1,2.4942897E-2,1.5940616E-2,-3.6681682E-1,-3.410385E-1,-8.9672476E-2,-5.9954572E-2,3.3164957E-1],"categories":[],"categories_nodes":[],"categories_segments":[],"categories_sizes":[],"default_left":[0,0,0,0,0,0,0,0,0,0,0,0,0,0,0,0,0,0,0,0,0,0,0,0,0],"id":11,"left_children":[1,3,5,7,9,-1,11,13,15,17,19,21,23,-1,-1,-1,-1,-1,-1,-1,-1,-1,-1,-1,-1],"loss_changes":[7.79421E1,7.557862E1,3.5359756E1,6.471296E1,6.084404E1,0E0,2.604374E1,2.8050808E1,6.2397804E1,2.3960564E1,5.5999016E1,4.2201233E-1,9.926299E0,0E0,0E0,0E0,0E0,0E0,0E0,0E0,0E0,0E0,0E0,0E0,0E0],"parents":[2147483647,0,0,1,1,2,2,3,3,4,4,6,6,7,7,8,8,9,9,10,10,11,11,12,12],"right_children":[2,4,6,8,10,-1,12,14,16,18,20,22,24,-1,-1,-1,-1,-1,-1,-1,-1,-1,-1,-1,-1],"split_conditions":[1.2E1,1E0,2.5E1,8.9E1,7E0,-3.502711E-1,1E0,1.01E2,1.93E2,4E0,3E0,3.1E1,3.01E2,-7.3287785E-2,3.8864E-2,5.575185E-2,2.4594465E-1,-1.4984949E-1,2.4942897E-2,1.5940616E-2,-3.6681682E-1,-3.410385E-1,-8.9672476E-2,-5.9954572E-2,3.3164957E-1],"split_indices":[7,13,5,12,7,0,29,5,5,3,13,8,5,0,0,0,0,0,0,0,0,0,0,0,0],"split_type":[0,0,0,0,0,0,0,0,0,0,0,0,0,0,0,0,0,0,0,0,0,0,0,0,0],"sum_hessian":[4.160792E3,3.898017E3,2.6277493E2,2.3978655E3,1.5001515E3,6.523309E1,1.9754185E2,8.250467E2,1.5728188E3,5.5216345E2,9.47988E2,3.3565613E1,1.6397624E2,4.8291794E2,3.4212875E2,1.3990023E3,1.7381654E2,4.6942963E2,8.2733826E1,9.132415E2,3.4746456E1,3.2087368E1,1.4782469E0,1.5891574E2,5.060498E0],"tree_param":{"num_deleted":"0","num_feature":"30","num_nodes":"25","size_leaf_vector":"1"}},{"base_weights":[-7.7228597E-3,1.041557E-2,-9.90737E-1,-7.3955625E-1,3.2161977E-2,-1.1866586E0,2.1461372E-1,-8.768384E-1,-1.4338776E-1,7.165029E-2,-3.7165043E-1,-1.2400671E0,1.2749943E-1,-6.6854066E-1,8.238071E-1,-1.10701144E-1,-3.2743764E-1,-3.175291E-1,1.427298E-1,4.8113707E-2,-4.2496756E-2,-2.2273521E-1,-1.9272033E-2,-4.226783E-1,-3.2200542E-1,2.238364E-1,-1.7972171E-1,1.402958E-3,-2.5947148E-1,2.083131E-2,2.883623E-1],"categories":[],"categories_nodes":[],"categories_segments":[],"categories_sizes":[],"default_left":[0,0,0,0,0,0,0,0,0,0,0,0,0,0,0,0,0,0,0,0,0,0,0,0,0,0,0,0,0,0,0],"id":12,"left_children":[1,3,5,7,9,11,13,15,17,19,21,23,25,27,29,-1,-1,-1,-1,-1,-1,-1,-1,-1,-1,-1,-1,-1,-1,-1,-1],"loss_changes":[7.247834E1,6.512463E1,1.7646431E1,9.083576E0,6.189887E1,4.615135E0,6.5462275E0,9.544563E0,1.311325E1,6.693402E1,3.936891E1,2.0822144E-1,1.9692357E0,6.7838E-1,6.632409E-1,0E0,0E0,0E0,0E0,0E0,0E0,0E0,0E0,0E0,0E0,0E0,0E0,0E0,0E0,0E0,0E0],"parents":[2147483647,0,0,1,1,2,2,3,3,4,4,5,5,6,6,7,7,8,8,9,9,10,10,11,11,12,12,13,13,14,14],"right_children":[2,4,6,8,10,12,14,16,18,20,22,24,26,28,30,-1,-1,-1,-1,-1,-1,-1,-1,-1,-1,-1,-1,-1,-1,-1,-1],"split_conditions":[1E0,6E1,1.5E2,1.92E2,2E0,2.05E2,1E2,2.018E3,1.1E1,1E0,9E1,1E0,1.5E1,1.63E2,7E0,-1.10701144E-1,-3.2743764E-1,-3.175291E-1,1.427298E-1,4.8113707E-2,-4.2496756E-2,-2.2273521E-1,-1.9272033E-2,-4.226783E-1,-3.2200542E-1,2.238364E-1,-1.7972171E-1,1.402958E-3,-2.5947148E-1,2.083131E-2,2.883623E-1],"split_indices":[4,12,5,5,13,12,12,6,8,28,5,13,8,5,7,0,0,0,0,0,0,0,0,0,0,0,0,0,0,0,0],"split_type":[0,0,0,0,0,0,0,0,0,0,0,0,0,0,0,0,0,0,0,0,0,0,0,0,0,0,0,0,0,0,0],"sum_hessian":[4.0633115E3,3.9906658E3,7.264576E1,1.1152365E2,3.879142E3,6.250199E1,1.0143768E1,9.026676E1,2.1256886E1,3.5343455E3,3.4479663E2,6.011524E1,2.3867536E0,4.101034E0,6.042734E0,2.7623472E1,6.264329E1,8.292293E0,1.2964593E1,2.4962366E3,1.0381089E3,1.5564342E2,1.8915321E2,2.6163782E1,3.3951454E1,1.2746106E0,1.1121429E0,1.1465104E0,2.9545238E0,1.162983E0,4.879751E0],"tree_param":{"num_deleted":"0","num_feature":"30","num_nodes":"31","size_leaf_vector":"1"}},{"base_weights":[-7.8114374E-3,-8.801553E-1,6.386514E-3,-3.366674E-1,-5.893741E-1,-3.105499E-3,1.360722E0,5.3373218E-2,-3.3525333E-1,2.505203E-2,-4.5341513E-1,1.5142655E0,3.6459178E-1,1.5221803E-1,-2.683643E-1,1.15621695E-2,-2.6731667E-1,-3.3620137E-1,-8.008484E-2,-1.2460803E-2,4.764491E-1,2.988127E-1,-1.8735234E-2],"categories":[],"categories_nodes":[],"categories_segments":[],"categories_sizes":[],"default_left":[0,0,0,0,0,0,0,0,0,0,0,0,0,0,0,0,0,0,0,0,0,0,0],"id":13,"left_children":[1,3,5,-1,7,9,11,13,-1,15,17,19,21,-1,-1,-1,-1,-1,-1,-1,-1,-1,-1],"loss_changes":[4.9765163E1,3.868023E0,5.083715E1,0E0,1.069794E1,4.981298E1,3.6575356E0,6.9483075E0,0E0,4.5724144E1,2.8466206E1,2.7712364E0,1.4085788E0,0E0,0E0,0E0,0E0,0E0,0E0,0E0,0E0,0E0,0E0],"parents":[2147483647,0,0,1,1,2,2,4,4,5,5,6,6,7,7,9,9,10,10,11,11,12,12],"right_children":[2,4,6,-1,8,10,12,14,-1,16,18,20,22,-1,-1,-1,-1,-1,-1,-1,-1,-1,-1],"split_conditions":[2E0,2.5E1,8E0,-3.366674E-1,5.1E1,1.2E1,1.57E2,1E0,-3.3525333E-1,1E0,2.5E1,5.95E1,2E0,1.5221803E-1,-2.683643E-1,1.15621695E-2,-2.6731667E-1,-3.3620137E-1,-8.008484E-2,-1.2460803E-2,4.764491E-1,2.988127E-1,-1.8735234E-2],"split_indices":[7,5,3,0,5,7,5,13,0,4,5,12,0,0,0,0,0,0,0,0,0,0,0],"split_type":[0,0,0,0,0,0,0,0,0,0,0,0,0,0,0,0,0,0,0,0,0,0,0],"sum_hessian":[4.016566E3,6.334845E1,3.9532173E3,3.3009438E1,3.033901E1,3.9266943E3,2.6522976E1,1.4090133E1,1.6248878E1,3.6964995E3,2.30195E2,2.2530045E1,3.9929316E0,9.841254E0,4.2488785E0,3.643807E3,5.269255E1,4.9183784E1,1.8101123E2,1.0414741E0,2.148857E1,1.0733676E0,2.919564E0],"tree_param":{"num_deleted":"0","num_feature":"30","num_nodes":"23","size_leaf_vector":"1"}},{"base_weights":[-6.9991928E-3,2.8879978E-3,-3.4643015E-1,-1.3721772E-1,8.638898E-2,-2.5306174E-1,1.0971679E-1,1.5573323E-2,2.7692163E-1,-3.1126233E-2,-1.4575168E-1,5.028939E-2,-1.983639E-1,3.5468414E-2,-4.8003737E-2,1.96808E-1,4.0524703E-2],"categories":[],"categories_nodes":[],"categories_segments":[],"categories_sizes":[],"default_left":[0,0,0,0,0,0,0,0,0,0,0,0,0,0,0,0,0],"id":14,"left_children":[1,3,-1,5,7,9,11,13,15,-1,-1,-1,-1,-1,-1,-1,-1],"loss_changes":[4.5308533E1,4.633017E1,0E0,4.2331726E1,3.347546E1,3.4945618E1,2.1226315E1,3.2644337E1,3.60616E1,0E0,0E0,0E0,0E0,0E0,0E0,0E0,0E0],"parents":[2147483647,0,0,1,1,3,3,4,4,5,5,6,6,7,7,8,8],"right_children":[2,4,-1,6,8,10,12,14,16,-1,-1,-1,-1,-1,-1,-1,-1],"split_conditions":[3E0,4.9E1,-3.4643015E-1,1.233E2,1E1,9E0,2E0,1E0,1E0,-3.1126233E-2,-1.4575168E-1,5.028939E-2,-1.983639E-1,3.5468414E-2,-4.8003737E-2,1.96808E-1,4.0524703E-2],"split_indices":[13,5,0,12,7,7,13,13,14,0,0,0,0,0,0,0,0],"split_type":[0,0,0,0,0,0,0,0,0,0,0,0,0,0,0,0,0],"sum_hessian":[3.9912803E3,3.958181E3,3.309938E1,1.4778551E3,2.480326E3,1.005923E3,4.719321E2,1.8090385E3,6.712873E2,6.1371826E2,3.9220468E2,4.396843E2,3.224781E1,1.1418136E3,6.6722485E2,1.8178668E2,4.8950064E2],"tree_param":{"num_deleted":"0","num_feature":"30","num_nodes":"17","size_leaf_vector":"1"}},{"base_weights":[-6.44649E-3,-1.8835284E-2,7.906339E-1,-6.128379E-1,-3.6216243E-3,1.1417531E0,3.3750156E-1,-8.087677E-1,-1.810473E-1,9.957712E-1,-1.4807592E-2,1.2563282E0,-3.4415096E-1,9.500558E-3,1.3547002E0,-1.1060909E-1,-3.0030665E-1,-2.6563907E-1,1.1843948E-1,6.644496E-1,-1.3983697E-1,-1.5701972E-1,2.7112926E-3,2.1835107E-1,4.1325834E-1,-7.7629887E-4,-1.6168737E-1,-9.835953E-2,1.9554035E-1,2.6653497E-2,5.346965E-1],"categories":[],"categories_nodes":[],"categories_segments":[],"categories_sizes":[],"default_left":[0,0,0,0,0,0,0,0,0,0,0,0,0,0,0,0,0,0,0,0,0,0,0,0,0,0,0,0,0,0,0],"id":15,"left_children":[1,3,5,7,9,11,13,15,17,19,21,23,25,27,29,-1,-1,-1,-1,-1,-1,-1,-1,-1,-1,-1,-1,-1,-1,-1,-1],"loss_changes":[3.8880917E1,3.5030373E1,9.20237E0,8.043114E0,4.228087E1,6.141205E0,9.238451E0,5.2401924E0,1.3128391E1,7.563934E1,4.5360634E1,1.0052605E0,2.1056512E-1,4.9753237E0,3.4976034E0,0E0,0E0,0E0,0E0,0E0,0E0,0E0,0E0,0E0,0E0,0E0,0E0,0E0,0E0,0E0,0E0],"parents":[2147483647,0,0,1,1,2,2,3,3,4,4,5,5,6,6,7,7,8,8,9,9,10,10,11,11,12,12,13,13,14,14],"right_children":[2,4,6,8,10,12,14,16,18,20,22,24,26,28,30,-1,-1,-1,-1,-1,-1,-1,-1,-1,-1,-1,-1,-1,-1,-1,-1],"split_conditions":[1.9888E2,6E1,1E0,1E0,6.152E1,1.2E1,8.7E1,2.018E3,1.7E1,2E0,3E0,2.05E2,2.3E2,3E0,2.05E2,-1.1060909E-1,-3.0030665E-1,-2.6563907E-1,1.1843948E-1,6.644496E-1,-1.3983697E-1,-1.5701972E-1,2.7112926E-3,2.1835107E-1,4.1325834E-1,-7.7629887E-4,-1.6168737E-1,-9.835953E-2,1.9554035E-1,2.6653497E-2,5.346965E-1],"split_indices":[12,12,13,28,12,7,5,6,8,0,5,12,12,3,12,0,0,0,0,0,0,0,0,0,0,0,0,0,0,0,0],"split_type":[0,0,0,0,0,0,0,0,0,0,0,0,0,0,0,0,0,0,0,0,0,0,0,0,0,0,0,0,0,0,0],"sum_hessian":[3.934854E3,3.875593E3,5.926087E1,9.5802315E1,3.7797908E3,3.25326E1,2.672827E1,6.529908E1,3.0503235E1,4.0863743E1,3.738927E3,3.0347101E1,2.1855006E0,2.0974329E1,5.7539415E0,2.0740898E1,4.455818E1,1.347813E1,1.7025105E1,2.200169E1,1.8862053E1,1.6651E2,3.572417E3,6.9680686E0,2.3379032E1,1.161782E0,1.0237186E0,1.4072404E1,6.901924E0,1.7579076E0,3.9960341E0],"tree_param":{"num_deleted":"0","num_feature":"30","num_nodes":"31","size_leaf_vector":"1"}},{"base_weights":[-5.0267787E-3,4.6956795E-3,-8.9504355E-1,6.36142E-2,-1.5167898E-1,-1.0072335E0,2.8834215E-1,1.3522237E-2,3.7608272E-1,-5.150173E-1,-1.856497E-2,-3.234851E-1,-4.0979624E-1,9.190491E-3,-3.2035536E-1,2.376898E-1,3.885734E-2,-3.14048E-1,-1.0916485E-3,-3.3992883E-2,2.2644852E-1,2.858825E-1,-3.1821615E-1],"categories":[],"categories_nodes":[],"categories_segments":[],"categories_sizes":[],"default_left":[0,0,0,0,0,0,0,0,0,0,0,0,0,0,0,0,0,0,0,0,0,0,0],"id":16,"left_children":[1,3,5,7,9,11,-1,13,15,17,19,-1,21,-1,-1,-1,-1,-1,-1,-1,-1,-1,-1],"loss_changes":[3.3812077E1,3.562646E1,9.760986E0,4.3954777E1,5.1172127E1,1.2690086E0,0E0,4.484416E1,3.971421E1,7.7151726E1,5.6911877E1,0E0,6.2415724E0,0E0,0E0,0E0,0E0,0E0,0E0,0E0,0E0,0E0,0E0],"parents":[2147483647,0,0,1,1,2,2,3,3,4,4,5,5,7,7,8,8,9,9,10,10,12,12],"right_children":[2,4,6,8,10,12,-1,14,16,18,20,-1,22,-1,-1,-1,-1,-1,-1,-1,-1,-1,-1],"split_conditions":[1E0,1E0,1.61E2,1.51E2,7.5E1,3.3E1,2.8834215E-1,1E0,1E0,1E0,1.14E2,-3.234851E-1,5E1,9.190491E-3,-3.2035536E-1,2.376898E-1,3.885734E-2,-3.14048E-1,-1.0916485E-3,-3.3992883E-2,2.2644852E-1,2.858825E-1,-3.1821615E-1],"split_indices":[9,28,5,5,5,5,0,4,13,2,12,0,5,0,0,0,0,0,0,0,0,0,0],"split_type":[0,0,0,0,0,0,0,0,0,0,0,0,0,0,0,0,0,0,0,0,0,0,0],"sum_hessian":[3.9060015E3,3.8647778E3,4.1223743E1,2.8075486E3,1.0572292E3,3.930544E1,1.9183038E0,2.4205522E3,3.8699646E2,2.8270615E2,7.745231E2,3.4408554E1,4.896885E0,2.3838003E3,3.6751965E1,1.4314279E2,2.4385368E2,1.3807138E2,1.4463475E2,6.907555E2,8.3767586E1,1.4329531E0,3.4639318E0],"tree_param":{"num_deleted":"0","num_feature":"30","num_nodes":"23","size_leaf_vector":"1"}},{"base_weights":[-4.839887E-3,2.9245964E-3,-3.3330694E-1,2.491228E-2,-3.7698188E-1,-7.806183E-1,3.6252733E-2,-3.24274E-1,-2.3444235E-1,-3.223047E-1,-1.4431553E-1,8.070591E-3,3.01258E-1,-3.0539304E-1,-3.4572743E-2],"categories":[],"categories_nodes":[],"categories_segments":[],"categories_sizes":[],"default_left":[0,0,0,0,0,0,0,0,0,0,0,0,0,0,0],"id":17,"left_children":[1,3,-1,5,7,9,11,-1,13,-1,-1,-1,-1,-1,-1],"loss_changes":[3.2955017E1,3.1841927E1,0E0,3.2944187E1,2.067217E1,3.888708E0,3.2141735E1,0E0,1.620005E1,0E0,0E0,0E0,0E0,0E0,0E0],"parents":[2147483647,0,0,1,1,3,3,4,4,5,5,6,6,8,8],"right_children":[2,4,-1,6,8,10,12,-1,14,-1,-1,-1,-1,-1,-1],"split_conditions":[3E0,1.2E1,-3.3330694E-1,2E0,2.5E1,2.5E1,7E0,-3.24274E-1,1E0,-3.223047E-1,-1.4431553E-1,8.070591E-3,3.01258E-1,-3.0539304E-1,-3.4572743E-2],"split_indices":[13,7,0,7,5,5,3,0,29,0,0,0,0,0,0],"split_type":[0,0,0,0,0,0,0,0,0,0,0,0,0,0,0],"sum_hessian":[3.8355344E3,3.8097903E3,2.5744192E1,3.6022395E3,2.0755081E2,4.9067417E1,3.553172E3,3.3841476E1,1.7370934E2,2.346914E1,2.5598278E1,3.520193E3,3.2978935E1,2.1941513E1,1.5176782E2],"tree_param":{"num_deleted":"0","num_feature":"30","num_nodes":"15","size_leaf_vector":"1"}},{"base_weights":[-4.816883E-3,6.2447835E-2,-1.09437205E-1,-1.5511464E-1,1.3845676E-1,-6.1013967E-1,-5.7364035E-2,-3.4749752E-1,5.327777E-1,9.222667E-2,7.897782E-1,-1.0351675E0,-1.0914353E-3,-5.8087724E-1,-1.7164452E-2,-4.7426123E-2,-2.2037987E-1,-2.6262978E-1,2.2182421E-1,-8.01819E-2,4.2500317E-2,-3.360677E-1,2.877804E-1,-2.6625752E-1,-4.2550763E-1,1.7411567E-1,-1.8179923E-1,-1.2837239E-1,-2.5170186E-1,-5.382267E-2,3.2544225E-2],"categories":[],"categories_nodes":[],"categories_segments":[],"categories_sizes":[],"default_left":[0,0,0,0,0,0,0,0,0,0,0,0,0,0,0,0,0,0,0,0,0,0,0,0,0,0,0,0,0,0,0],"id":18,"left_children":[1,3,5,7,9,11,13,15,17,19,21,23,25,27,29,-1,-1,-1,-1,-1,-1,-1,-1,-1,-1,-1,-1,-1,-1,-1,-1],"loss_changes":[2.684719E1,3.8421417E1,3.8890446E1,7.981212E1,5.176008E1,3.63781E1,2.8472277E1,3.4403275E1,3.9026627E1,2.8626717E1,3.7964554E1,3.4239578E0,2.10213E1,3.4506989E0,2.5662321E1,0E0,0E0,0E0,0E0,0E0,0E0,0E0,0E0,0E0,0E0,0E0,0E0,0E0,0E0,0E0,0E0],"parents":[2147483647,0,0,1,1,2,2,3,3,4,4,5,5,6,6,7,7,8,8,9,9,10,10,11,11,12,12,13,13,14,14],"right_children":[2,4,6,8,10,12,14,16,18,20,22,24,26,28,30,-1,-1,-1,-1,-1,-1,-1,-1,-1,-1,-1,-1,-1,-1,-1,-1],"split_conditions":[1E0,2E0,1E0,2E0,2.73E2,9.754E1,7E0,1.17E2,2.018E3,7.308E1,2.018E3,2.05E2,1E0,2E1,8E0,-4.7426123E-2,-2.2037987E-1,-2.6262978E-1,2.2182421E-1,-8.01819E-2,4.2500317E-2,-3.360677E-1,2.877804E-1,-2.6625752E-1,-4.2550763E-1,1.7411567E-1,-1.8179923E-1,-1.2837239E-1,-2.5170186E-1,-5.382267E-2,3.2544225E-2],"split_indices":[13,0,29,2,5,12,5,5,6,12,6,5,14,8,7,0,0,0,0,0,0,0,0,0,0,0,0,0,0,0,0],"split_type":[0,0,0,0,0,0,0,0,0,0,0,0,0,0,0,0,0,0,0,0,0,0,0,0,0,0,0,0,0,0,0],"sum_hessian":[3.813037E3,2.3211057E3,1.4919314E3,6.0069073E2,1.7204149E3,1.3953497E2,1.3523964E3,4.6979736E2,1.308934E2,1.6074607E3,1.1295422E2,8.177097E1,5.7764E1,9.548319E1,1.2569132E3,3.1639334E2,1.5340404E2,1.633501E1,1.14558395E2,1.9380984E2,1.4136509E3,8.749175E0,1.0420505E2,6.1421574E1,2.0349405E1,2.9473038E1,2.8290962E1,6.162276E1,3.3860428E1,5.483745E2,7.085387E2],"tree_param":{"num_deleted":"0","num_feature":"30","num_nodes":"31","size_leaf_vector":"1"}},{"base_weights":[-4.546853E-3,-1.4247992E-2,6.6383964E-1,-8.361673E-3,-3.2027262E-1,9.9893326E-1,2.8817952E-1,-7.6460975E-1,-1.1102569E-3,1.1072001E0,-2.541099E-1,3.15112E-2,1.0819381E0,-2.8853253E-1,-5.635118E-2,-2.2566712E-3,2.713175E-1,1.602697E-1,3.7598845E-1,-9.148284E-2,-2.3536684E-2,2.6282248E-1,-7.135327E-2,2.5118567E-2,4.2654756E-1],"categories":[],"categories_nodes":[],"categories_segments":[],"categories_sizes":[],"default_left":[0,0,0,0,0,0,0,0,0,0,0,0,0,0,0,0,0,0,0,0,0,0,0,0,0],"id":19,"left_children":[1,3,5,7,-1,9,11,13,15,17,19,21,23,-1,-1,-1,-1,-1,-1,-1,-1,-1,-1,-1,-1],"loss_changes":[2.4320845E1,2.2911535E1,6.467165E0,2.0164333E1,0E0,4.074068E0,5.406596E0,3.7907658E0,2.115978E1,1.5001621E0,3.191039E-3,5.033328E0,2.0846634E0,0E0,0E0,0E0,0E0,0E0,0E0,0E0,0E0,0E0,0E0,0E0,0E0],"parents":[2147483647,0,0,1,1,2,2,3,3,5,5,6,6,7,7,8,8,9,9,10,10,11,11,12,12],"right_children":[2,4,6,8,-1,10,12,14,16,18,20,22,24,-1,-1,-1,-1,-1,-1,-1,-1,-1,-1,-1,-1],"split_conditions":[1.9888E2,3E0,1E0,4.8E1,-3.2027262E-1,1.2E1,8.7E1,3E0,3.49E2,2.05E2,3.3E1,2.05E2,2.05E2,-2.8853253E-1,-5.635118E-2,-2.2566712E-3,2.713175E-1,1.602697E-1,3.7598845E-1,-9.148284E-2,-2.3536684E-2,2.6282248E-1,-7.135327E-2,2.5118567E-2,4.2654756E-1],"split_indices":[12,13,13,12,0,7,5,3,5,12,5,12,12,0,0,0,0,0,0,0,0,0,0,0,0],"split_type":[0,0,0,0,0,0,0,0,0,0,0,0,0,0,0,0,0,0,0,0,0,0,0,0,0],"sum_hessian":[3.748379E3,3.6957168E3,5.2661938E1,3.6761812E3,1.9535702E1,2.69569E1,2.5705036E1,3.392296E1,3.6422583E3,2.4920115E1,2.0367863E0,2.020975E1,5.4952874E0,2.478342E1,9.139537E0,3.617633E3,2.4625252E1,6.0092454E0,1.8910868E1,1.0088063E0,1.02798E0,4.3422236E0,1.5867525E1,1.7124269E0,3.7828608E0],"tree_param":{"num_deleted":"0","num_feature":"30","num_nodes":"25","size_leaf_vector":"1"}},{"base_weights":[-3.1243707E-3,1.4933607E-2,-3.294643E-1,-6.81313E-2,8.846807E-2,-3.145278E-1,-2.1561737E-1,-3.6100503E-2,-5.782597E-1,1.1450201E-3,6.938334E-1,-2.6330242E-2,-6.0569495E-1,2.7844109E-2,-4.139028E-2,-2.0966153E-1,4.382135E-1,1.5164596E-2,-1.6311446E-1,-1.5273954E-1,2.6557308E-1,-9.542886E-2,2.0986754E-1,3.4178235E-3,-3.4089798E-1],"categories":[],"categories_nodes":[],"categories_segments":[],"categories_sizes":[],"default_left":[0,0,0,0,0,0,0,0,0,0,0,0,0,0,0,0,0,0,0,0,0,0,0,0,0],"id":20,"left_children":[1,3,5,7,9,-1,11,13,15,17,19,21,23,-1,-1,-1,-1,-1,-1,-1,-1,-1,-1,-1,-1],"loss_changes":[2.1997868E1,2.1612299E1,1.57944355E1,2.712896E1,9.920705E1,0E0,1.2553183E1,2.0557678E1,2.5145885E1,4.420365E1,5.4926773E1,2.4717688E1,1.8209423E1,0E0,0E0,0E0,0E0,0E0,0E0,0E0,0E0,0E0,0E0,0E0,0E0],"parents":[2147483647,0,0,1,1,2,2,3,3,4,4,6,6,7,7,8,8,9,9,10,10,11,11,12,12],"right_children":[2,4,6,8,10,-1,12,14,16,18,20,22,24,-1,-1,-1,-1,-1,-1,-1,-1,-1,-1,-1,-1],"split_conditions":[1.2E1,9.99E1,2.5E1,1E0,1.51E2,-3.145278E-1,1.52E2,8.03E1,1E0,2E0,2.018E3,1E2,8.075E1,2.7844109E-2,-4.139028E-2,-2.0966153E-1,4.382135E-1,1.5164596E-2,-1.6311446E-1,-1.5273954E-1,2.6557308E-1,-9.542886E-2,2.0986754E-1,3.4178235E-3,-3.4089798E-1],"split_indices":[7,12,5,21,5,0,5,12,27,13,6,5,12,0,0,0,0,0,0,0,0,0,0,0,0],"split_type":[0,0,0,0,0,0,0,0,0,0,0,0,0,0,0,0,0,0,0,0,0,0,0,0,0],"sum_hessian":[3.7310215E3,3.5362952E3,1.9472621E2,1.6605748E3,1.8757203E3,2.549733E1,1.6922888E2,1.5634755E3,9.709936E1,1.6401351E3,2.3558517E2,1.14658E2,5.4570877E1,6.901589E2,8.733165E2,9.229692E1,4.8024316E0,1.5046156E3,1.3551956E2,3.2111645E1,2.0347353E2,8.2185776E1,3.2472225E1,2.5682476E1,2.8888401E1],"tree_param":{"num_deleted":"0","num_feature":"30","num_nodes":"25","size_leaf_vector":"1"}},{"base_weights":[-2.230197E-3,5.723247E-3,-7.265828E-1,5.3702775E-2,-1.272538E-1,-1.0129106E0,3.018425E-1,-3.1095624E-1,8.451039E-2,-5.2516085E-1,-3.6874402E-2,-3.263382E-1,8.599787E-2,-3.9042258E-1,2.484722E-1,6.335572E-2,-1.3767777E-1,-1.2340798E-1,3.1637963E-2,2.0248663E-1,-1.9774964E-1,7.642414E-2,-4.8084456E-2,-1.918556E-1,5.1660612E-2],"categories":[],"categories_nodes":[],"categories_segments":[],"categories_sizes":[],"default_left":[0,0,0,0,0,0,0,0,0,0,0,0,0,0,0,0,0,0,0,0,0,0,0,0,0],"id":21,"left_children":[1,3,5,7,9,11,13,15,17,19,21,-1,-1,23,-1,-1,-1,-1,-1,-1,-1,-1,-1,-1,-1],"loss_changes":[2.1181404E1,2.3211367E1,1.2064131E1,3.005949E1,3.4670807E1,3.3738327E0,3.7730775E0,1.62038E1,2.565952E1,2.9146736E1,2.8368828E1,0E0,0E0,7.7845114E-1,0E0,0E0,0E0,0E0,0E0,0E0,0E0,0E0,0E0,0E0,0E0],"parents":[2147483647,0,0,1,1,2,2,3,3,4,4,5,5,6,6,7,7,8,8,9,9,10,10,13,13],"right_children":[2,4,6,8,10,12,14,16,18,20,22,-1,-1,24,-1,-1,-1,-1,-1,-1,-1,-1,-1,-1,-1],"split_conditions":[1E0,1E0,1.5E2,7.207E1,6E1,2.05E2,1E2,2.018E3,2E0,6.152E1,1.06E2,-3.263382E-1,8.599787E-2,2.21E2,2.484722E-1,6.335572E-2,-1.3767777E-1,-1.2340798E-1,3.1637963E-2,2.0248663E-1,-1.9774964E-1,7.642414E-2,-4.8084456E-2,-1.918556E-1,5.1660612E-2],"split_indices":[4,28,5,12,5,12,12,6,5,12,5,0,0,5,0,0,0,0,0,0,0,0,0,0,0],"split_type":[0,0,0,0,0,0,0,0,0,0,0,0,0,0,0,0,0,0,0,0,0,0,0,0,0],"sum_hessian":[3.6749048E3,3.6359736E3,3.893115E1,2.6723555E3,9.6361804E2,3.04645E1,8.466648E0,2.0747325E2,2.4648823E3,1.774705E2,7.861475E2,2.8958805E1,1.5056956E0,3.7687223E0,4.697926E0,4.571854E1,1.6175471E2,9.915947E1,2.365723E3,1.7420397E1,1.6005011E2,2.3344136E2,5.527062E2,2.5174694E0,1.2512528E0],"tree_param":{"num_deleted":"0","num_feature":"30","num_nodes":"25","size_leaf_vector":"1"}},{"base_weights":[-3.0328156E-3,-7.6640206E-3,1.1843505E0,-2.8638397E-3,-3.1767866E-1,7.720865E-2,1.3038044E0,3.3754283E-3,-7.7879983E-1,4.2131278E-1,1.4245337E-1,-1.9120532E-1,3.0803143E-3,-2.772444E-1,3.109352E-1],"categories":[],"categories_nodes":[],"categories_segments":[],"categories_sizes":[],"default_left":[0,0,0,0,0,0,0,0,0,0,0,0,0,0,0],"id":22,"left_children":[1,3,5,7,-1,-1,9,11,13,-1,-1,-1,-1,-1,-1],"loss_changes":[2.0093813E1,1.8361458E1,1.2364941E0,1.754589E1,0E0,0E0,3.611107E-1,1.5885753E1,8.585485E0,0E0,0E0,0E0,0E0,0E0,0E0],"parents":[2147483647,0,0,1,1,2,2,3,3,6,6,7,7,8,8],"right_children":[2,4,6,8,-1,-1,10,12,14,-1,-1,-1,-1,-1,-1],"split_conditions":[1E1,3E0,3E0,1E0,-3.1767866E-1,7.720865E-2,1.2E1,2E0,1.61E2,4.2131278E-1,1.4245337E-1,-1.9120532E-1,3.0803143E-3,-2.772444E-1,3.109352E-1],"split_indices":[3,13,7,9,0,0,7,7,5,0,0,0,0,0,0],"split_type":[0,0,0,0,0,0,0,0,0,0,0,0,0,0,0],"sum_hessian":[3.6514238E3,3.6382268E3,1.3196796E1,3.622688E3,1.5538835E1,1.8665382E0,1.1330257E1,3.5947783E3,2.7909807E1,9.485331E0,1.8449273E0,3.7283943E1,3.5574944E3,2.6295233E1,1.6145747E0],"tree_param":{"num_deleted":"0","num_feature":"30","num_nodes":"15","size_leaf_vector":"1"}},{"base_weights":[-2.5077725E-3,5.1396046E-2,-8.711454E-2,-1.7447798E-1,9.6728794E-2,-5.471035E-1,-4.7033247E-2,5.545704E-1,-4.0999106E-1,4.0274527E-2,3.37767E-1,-8.162087E-1,7.2947964E-2,-1.5278162E-1,9.195497E-2,2.075815E-1,-2.041065E-1,-2.120403E-1,-1.5988402E-2,3.1094162E-2,-1.0895828E-1,2.976296E-1,5.4147948E-2,-2.6603213E-1,1.2460334E-1,-1.6072056E-1,2.8585276E-1,3.87619E-1,-7.0713446E-2,-9.9267475E-2,5.442424E-2],"categories":[],"categories_nodes":[],"categories_segments":[],"categories_sizes":[],"default_left":[0,0,0,0,0,0,0,0,0,0,0,0,0,0,0,0,0,0,0,0,0,0,0,0,0,0,0,0,0,0,0],"id":23,"left_children":[1,3,5,7,9,11,13,15,17,19,21,23,25,27,29,-1,-1,-1,-1,-1,-1,-1,-1,-1,-1,-1,-1,-1,-1,-1,-1],"loss_changes":[1.6601437E1,2.2784996E1,2.6092478E1,6.410491E1,2.5194963E1,1.8989727E1,1.9182484E1,1.5952358E1,2.9793312E1,3.8445118E1,3.5984676E1,7.250828E0,1.9391642E1,8.909505E1,2.1400215E1,0E0,0E0,0E0,0E0,0E0,0E0,0E0,0E0,0E0,0E0,0E0,0E0,0E0,0E0,0E0,0E0],"parents":[2147483647,0,0,1,1,2,2,3,3,4,4,5,5,6,6,7,7,8,8,9,9,10,10,11,11,12,12,13,13,14,14],"right_children":[2,4,6,8,10,12,14,16,18,20,22,24,26,28,30,-1,-1,-1,-1,-1,-1,-1,-1,-1,-1,-1,-1,-1,-1,-1,-1],"split_conditions":[1E0,2.018E3,1E0,9E0,1.55E2,1.01E2,9E0,2.8E1,9.3E1,1.17E2,6E0,1E0,1.44E2,2.018E3,2.018E3,2.075815E-1,-2.041065E-1,-2.120403E-1,-1.5988402E-2,3.1094162E-2,-1.0895828E-1,2.976296E-1,5.4147948E-2,-2.6603213E-1,1.2460334E-1,-1.6072056E-1,2.8585276E-1,3.87619E-1,-7.0713446E-2,-9.9267475E-2,5.442424E-2],"split_indices":[13,6,29,7,5,12,7,8,5,5,8,17,5,6,6,0,0,0,0,0,0,0,0,0,0,0,0,0,0,0,0],"split_type":[0,0,0,0,0,0,0,0,0,0,0,0,0,0,0,0,0,0,0,0,0,0,0,0,0,0,0,0,0,0,0],"sum_hessian":[3.6381826E3,2.2225598E3,1.4156226E3,3.7102908E2,1.8515309E3,1.12450134E2,1.3031725E3,9.0261894E1,2.8076718E2,1.501117E3,3.504139E2,7.819624E1,3.4253887E1,7.400276E2,5.631449E2,8.162226E1,8.639629E0,1.5271242E2,1.2805476E2,1.297986E3,2.03131E2,6.6875015E1,2.835389E2,7.422338E1,3.972863E0,2.0478586E1,1.3775301E1,3.937835E1,7.0064923E2,9.786546E1,4.6527942E2],"tree_param":{"num_deleted":"0","num_feature":"30","num_nodes":"31","size_leaf_vector":"1"}},{"base_weights":[-3.2420557E-3,-1.1267938E-2,5.8641034E-1,3.8333742E-3,-2.8296477E-1,9.25205E-1,2.5192347E-1,-1.2335284E-1,3.7254736E-2,-3.0621824E-1,-1.9385614E-1,1.0322539E0,-5.6492332E-2,-4.2715976E-1,4.777127E-1,-7.474947E-2,9.352509E-2,-2.7916613E-3,7.077914E-2,-3.087826E-1,-2.897744E-2,1.3002366E-1,3.5918003E-1,5.547574E-3,-2.5885674E-1,-8.9720376E-2,2.0183635E-1],"categories":[],"categories_nodes":[],"categories_segments":[],"categories_sizes":[],"default_left":[0,0,0,0,0,0,0,0,0,0,0,0,0,0,0,0,0,0,0,0,0,0,0,0,0,0,0],"id":24,"left_children":[1,3,5,7,9,11,13,15,17,-1,19,21,-1,23,25,-1,-1,-1,-1,-1,-1,-1,-1,-1,-1,-1,-1],"loss_changes":[1.6987637E1,1.4529673E1,5.229351E0,1.4268035E1,1.2060422E1,3.00428E0,4.133849E0,3.831407E1,2.4590008E1,0E0,1.3519491E1,1.6214294E0,0E0,1.3602251E0,3.1873417E0,0E0,0E0,0E0,0E0,0E0,0E0,0E0,0E0,0E0,0E0,0E0,0E0],"parents":[2147483647,0,0,1,1,2,2,3,3,4,4,5,5,6,6,7,7,8,8,10,10,11,11,13,13,14,14],"right_children":[2,4,6,8,10,12,14,16,18,-1,20,22,-1,24,26,-1,-1,-1,-1,-1,-1,-1,-1,-1,-1,-1,-1],"split_conditions":[1.9888E2,1.2E1,1E0,2E0,2.5E1,1.2E1,1.2E1,2E0,1.51E2,-3.0621824E-1,1E0,2.05E2,-5.6492332E-2,2.1E1,8E0,-7.474947E-2,9.352509E-2,-2.7916613E-3,7.077914E-2,-3.087826E-1,-2.897744E-2,1.3002366E-1,3.5918003E-1,5.547574E-3,-2.5885674E-1,-8.9720376E-2,2.0183635E-1],"split_indices":[12,7,13,0,5,7,5,2,5,0,29,12,0,8,8,0,0,0,0,0,0,0,0,0,0,0,0],"split_type":[0,0,0,0,0,0,0,0,0,0,0,0,0,0,0,0,0,0,0,0,0,0,0,0,0,0,0],"sum_hessian":[3.587188E3,3.5399854E3,4.720259E1,3.354522E3,1.854634E2,2.2572918E1,2.4629673E1,6.974936E2,2.6570283E3,1.8859976E1,1.6660342E2,2.0659744E1,1.9131743E0,5.9232044E0,1.8706469E1,5.413788E2,1.5611482E2,2.1533396E3,5.036887E2,1.6374914E1,1.502285E2,5.24648E0,1.5413264E1,3.4015186E0,2.5216858E0,3.6478393E0,1.505863E1],"tree_param":{"num_deleted":"0","num_feature":"30","num_nodes":"27","size_leaf_vector":"1"}},{"base_weights":[-2.702845E-3,1.6312135E-2,-2.2791725E-1,6.192352E-2,-1.0452883E-1,-4.2748752E-1,3.6964548E-1,-6.288112E-1,7.343762E-2,7.4826735E-1,-1.4310804E-1,-3.127383E-1,-4.796638E-2,1.0625685E0,-6.212853E-3,-2.041661E-1,1.0495115E-1,2.4712894E-2,-2.2031938E-1,-1.5844496E-1,5.2116823E-1,5.677616E-2,-7.912226E-2,3.5415864E-1,-3.5862386E-2,-8.817064E-2,3.9196566E-1,-3.9643537E-2,1.6586114E-1],"categories":[],"categories_nodes":[],"categories_segments":[],"categories_sizes":[],"default_left":[0,0,0,0,0,0,0,0,0,0,0,0,0,0,0,0,0,0,0,0,0,0,0,0,0,0,0,0,0],"id":25,"left_children":[1,3,5,7,9,11,13,15,17,19,21,-1,23,25,27,-1,-1,-1,-1,-1,-1,-1,-1,-1,-1,-1,-1,-1,-1],"loss_changes":[1.5223119E1,1.807467E1,3.316362E1,1.8978668E1,2.9672855E1,4.8481415E1,1.8192337E1,2.219798E0,1.6974613E1,5.0217155E1,3.4554413E1,0E0,1.1539545E1,8.51288E0,3.3304183E0,0E0,0E0,0E0,0E0,0E0,0E0,0E0,0E0,0E0,0E0,0E0,0E0,0E0,0E0],"parents":[2147483647,0,0,1,1,2,2,3,3,4,4,5,5,6,6,7,7,8,8,9,9,10,10,12,12,13,13,14,14],"right_children":[2,4,6,8,10,12,14,16,18,20,22,-1,24,26,28,-1,-1,-1,-1,-1,-1,-1,-1,-1,-1,-1,-1,-1,-1],"split_conditions":[2E0,1E0,4E0,5.8E1,1E0,9.1E1,8.3E1,2.86E2,1E0,9.228E1,7.59E1,-3.127383E-1,9.6E1,9E0,1E0,-2.041661E-1,1.0495115E-1,2.4712894E-2,-2.2031938E-1,-1.5844496E-1,5.2116823E-1,5.677616E-2,-7.912226E-2,3.5415864E-1,-3.5862386E-2,-8.817064E-2,3.9196566E-1,-3.9643537E-2,1.6586114E-1],"split_indices":[13,28,3,12,3,5,5,5,4,12,12,0,5,5,1,0,0,0,0,0,0,0,0,0,0,0,0,0,0],"split_type":[0,0,0,0,0,0,0,0,0,0,0,0,0,0,0,0,0,0,0,0,0,0,0,0,0,0,0,0,0],"sum_hessian":[3.5529026E3,3.2771394E3,2.7576315E2,2.3794895E3,8.9765E2,2.0693643E2,6.882672E1,3.81352E1,2.3413542E3,3.8054615E1,8.595954E2,7.830492E1,1.2863152E2,2.3561775E1,4.526495E1,3.6509495E1,1.6257079E0,2.316619E3,2.4735321E1,1.6816317E1,2.1238297E1,2.2875938E2,6.30836E2,6.2287674E0,1.2240275E2,3.5607197E0,2.0001057E1,3.7566757E1,7.6981897E0],"tree_param":{"num_deleted":"0","num_feature":"30","num_nodes":"29","size_leaf_vector":"1"}},{"base_weights":[-3.6292719E-3,2.758179E-4,-3.081692E-1,-3.110462E-3,9.7014236E-1,-7.243927E-2,4.153345E-2,4.808532E-2,1.1022923E0,-1.4326211E-2,-1.986077E-1,4.056002E-4,8.750161E-2,1.0164053E-1,3.461938E-1],"categories":[],"categories_nodes":[],"categories_segments":[],"categories_sizes":[],"default_left":[0,0,0,0,0,0,0,0,0,0,0,0,0,0,0],"id":26,"left_children":[1,3,-1,5,7,9,11,-1,13,-1,-1,-1,-1,-1,-1],"loss_changes":[1.4140394E1,1.1579999E1,0E0,1.0878427E1,1.1362648E0,2.0005308E1,2.1488705E1,0E0,1.8521309E-2,0E0,0E0,0E0,0E0,0E0,0E0],"parents":[2147483647,0,0,1,1,3,3,4,4,5,5,6,6,8,8],"right_children":[2,4,-1,6,8,10,12,-1,14,-1,-1,-1,-1,-1,-1],"split_conditions":[3E0,1E1,-3.081692E-1,9.45E1,3E0,1E0,1.51E2,4.808532E-2,3E0,-1.4326211E-2,-1.986077E-1,4.056002E-4,8.750161E-2,1.0164053E-1,3.461938E-1],"split_indices":[13,3,0,12,7,15,5,0,8,0,0,0,0,0,0],"split_type":[0,0,0,0,0,0,0,0,0,0,0,0,0,0,0],"sum_hessian":[3.5364553E3,3.5240107E3,1.2444545E1,3.512743E3,1.1267916E1,1.3757222E3,2.1370208E3,1.8911616E0,9.376755E0,1.3214746E3,5.424748E1,1.8421149E3,2.9490594E2,1.0735626E0,8.303192E0],"tree_param":{"num_deleted":"0","num_feature":"30","num_nodes":"15","size_leaf_vector":"1"}},{"base_weights":[-2.6292242E-3,4.379731E-2,-7.5479895E-2,3.70333E-2,1.0171729E0,-4.770446E-2,-4.9826422E-1,8.9165986E-2,-6.2694326E-2,3.3720613E-1,2.1754546E-2,3.0148277E-1,-8.398168E-2,-7.358652E-1,4.3722644E-2,1.8437225E-2,1.2642226E-1,-9.212685E-2,3.9670046E-2,-2.6409892E-2,2.3108192E-1,-6.739139E-2,2.0364324E-2,-2.5026464E-1,-4.9406696E-2,-2.4121068E-1,1.8718465E-1],"categories":[],"categories_nodes":[],"categories_segments":[],"categories_sizes":[],"default_left":[0,0,0,0,0,0,0,0,0,0,0,0,0,0,0,0,0,0,0,0,0,0,0,0,0,0,0],"id":27,"left_children":[1,3,5,7,9,11,13,15,17,-1,-1,19,21,23,25,-1,-1,-1,-1,-1,-1,-1,-1,-1,-1,-1,-1],"loss_changes":[1.1890817E1,1.4100071E1,1.6045506E1,1.1097967E1,1.4103966E0,1.6305122E1,1.0881844E1,1.287637E1,3.4961014E1,0E0,0E0,2.2193235E1,2.4899977E1,3.1561642E0,1.3596816E1,0E0,0E0,0E0,0E0,0E0,0E0,0E0,0E0,0E0,0E0,0E0,0E0],"parents":[2147483647,0,0,1,1,2,2,3,3,4,4,5,5,6,6,7,7,8,8,11,11,12,12,13,13,14,14],"right_children":[2,4,6,8,10,12,14,16,18,-1,-1,20,22,24,26,-1,-1,-1,-1,-1,-1,-1,-1,-1,-1,-1,-1],"split_conditions":[1E0,2.05E2,1E0,9E0,1.2E1,4E0,1.01E2,1.45E2,7.5E1,3.3720613E-1,2.1754546E-2,9.095E1,9E0,1E0,1.04E2,1.8437225E-2,1.2642226E-1,-9.212685E-2,3.9670046E-2,-2.6409892E-2,2.3108192E-1,-6.739139E-2,2.0364324E-2,-2.5026464E-1,-4.9406696E-2,-2.4121068E-1,1.8718465E-1],"split_indices":[13,12,28,7,7,7,12,12,5,0,0,12,7,15,5,0,0,0,0,0,0,0,0,0,0,0,0],"split_type":[0,0,0,0,0,0,0,0,0,0,0,0,0,0,0,0,0,0,0,0,0,0,0,0,0,0,0],"sum_hessian":[3.513723E3,2.1463123E3,1.3674106E3,2.1325312E3,1.3780967E1,1.2841588E3,8.325188E1,1.4005162E3,7.3201495E2,1.2210053E1,1.5709128E0,1.2016804E2,1.1639907E3,5.762987E1,2.5622005E1,1.2937998E3,1.0671646E2,3.2454007E2,4.0747488E2,6.607709E1,5.4090946E1,6.0404297E2,5.5994775E2,4.8771442E1,8.858428E0,1.0254137E1,1.5367867E1],"tree_param":{"num_deleted":"0","num_feature":"30","num_nodes":"27","size_leaf_vector":"1"}},{"base_weights":[-2.5081255E-3,1.0201544E-2,-2.3838297E-1,-5.5310255E-1,1.606278E-2,-3.7485167E-1,1.8890312E-1,-3.0717632E-1,-1.3135457E-1,1.3265244E-2,3.2997224E-1,-2.0371255E-1,-7.4111176E-1,5.708459E-1,-1.9879967E-1,1.6336839E-1,-2.8708184E-1,5.178526E-3,-2.1545576E-1,-1.4524262E-1,1.2875304E-1,-1.080602E-1,-3.7571093E-1,-2.3459308E-1,2.3849784E-1,-2.9432464E-1,2.4811646E-1],"categories":[],"categories_nodes":[],"categories_segments":[],"categories_sizes":[],"default_left":[0,0,0,0,0,0,0,0,0,0,0,0,0,0,0,0,0,0,0,0,0,0,0,0,0,0,0],"id":28,"left_children":[1,3,5,7,9,11,13,-1,15,17,-1,19,21,23,25,-1,-1,-1,-1,-1,-1,-1,-1,-1,-1,-1,-1],"loss_changes":[1.0440167E1,1.0919673E1,1.0453327E1,6.6285315E0,9.905146E0,8.329012E0,6.5944467E0,0E0,1.1186667E1,9.554382E0,0E0,1.6816948E1,7.8652763E0,7.385336E0,1.8836697E1,0E0,0E0,0E0,0E0,0E0,0E0,0E0,0E0,0E0,0E0,0E0,0E0],"parents":[2147483647,0,0,1,1,2,2,3,3,4,4,5,5,6,6,8,8,9,9,11,11,12,12,13,13,14,14],"right_children":[2,4,6,8,10,12,14,-1,16,18,-1,20,22,24,26,-1,-1,-1,-1,-1,-1,-1,-1,-1,-1,-1,-1],"split_conditions":[1.2E1,2E0,1E0,2.5E1,1E1,1.52E2,1E0,-3.0717632E-1,1E0,1E0,3.2997224E-1,1E2,1E2,2.5E1,1.08E2,1.6336839E-1,-2.8708184E-1,5.178526E-3,-2.1545576E-1,-1.4524262E-1,1.2875304E-1,-1.080602E-1,-3.7571093E-1,-2.3459308E-1,2.3849784E-1,-2.9432464E-1,2.4811646E-1],"split_indices":[7,7,17,5,3,5,13,0,28,11,0,5,12,5,5,0,0,0,0,0,0,0,0,0,0,0,0],"split_type":[0,0,0,0,0,0,0,0,0,0,0,0,0,0,0,0,0,0,0,0,0,0,0,0,0,0,0],"sum_hessian":[3.4806926E3,3.3036392E3,1.7705359E2,3.3059223E1,3.2705798E3,1.3428705E2,4.276654E1,1.4946214E1,1.811301E1,3.2631694E3,7.4104E0,9.258287E1,4.1704185E1,2.1305344E1,2.1461195E1,1.0146417E1,7.966594E0,3.2464082E3,1.676135E1,6.431868E1,2.8264194E1,2.4875393E1,1.682879E1,2.674557E0,1.8630787E1,1.2200867E1,9.260329E0],"tree_param":{"num_deleted":"0","num_feature":"30","num_nodes":"27","size_leaf_vector":"1"}},{"base_weights":[-2.555499E-3,4.4517807E-4,-2.9485118E-1,-3.6458333E-3,6.877446E-1,2.699761E-2,-9.573903E-2,9.7219247E-1,-9.510868E-2,4.206699E-2,-4.4385944E-3,7.923353E-2,-5.440296E-2,4.1125128E-1,9.432159E-2,-2.6961508E-1,7.2985426E-2],"categories":[],"categories_nodes":[],"categories_segments":[],"categories_sizes":[],"default_left":[0,0,0,0,0,0,0,0,0,0,0,0,0,0,0,0,0],"id":29,"left_children":[1,3,-1,5,7,9,11,13,15,-1,-1,-1,-1,-1,-1,-1,-1],"loss_changes":[1.0205438E1,9.730373E0,0E0,9.711133E0,4.652235E0,1.2220673E1,2.651345E1,3.530819E0,1.9503752E0,0E0,0E0,0E0,0E0,0E0,0E0,0E0,0E0],"parents":[2147483647,0,0,1,1,3,3,4,4,5,5,6,6,7,7,8,8],"right_children":[2,4,-1,6,8,10,12,14,16,-1,-1,-1,-1,-1,-1,-1,-1],"split_conditions":[3E0,3.49E2,-2.9485118E-1,1E0,2E0,1E0,5E0,8.64E1,7.1E1,4.206699E-2,-4.4385944E-3,7.923353E-2,-5.440296E-2,4.1125128E-1,9.432159E-2,-2.6961508E-1,7.2985426E-2],"split_indices":[13,5,0,28,2,14,7,12,12,0,0,0,0,0,0,0,0],"split_type":[0,0,0,0,0,0,0,0,0,0,0,0,0,0,0,0,0],"sum_hessian":[3.4683074E3,3.4587197E3,9.587717E0,3.4392432E3,1.9476706E1,2.5811035E3,8.581395E2,1.4108543E1,5.3681626E0,6.9522906E2,1.8858745E3,1.6451003E2,6.936295E2,8.109718E0,5.998825E0,1.1000223E0,4.2681403E0],"tree_param":{"num_deleted":"0","num_feature":"30","num_nodes":"17","size_leaf_vector":"1"}},{"base_weights":[-1.9305925E-3,2.7222976E-3,-5.706851E-1,-3.681942E-1,9.719244E-3,-9.264234E-1,3.3570352E-1,-1.597781E-1,-6.789083E-1,-4.619951E-2,5.722137E-2,-3.054462E-1,6.1352517E-2,-2.8567842E-1,2.5209284E-1,-2.530567E-1,1.5649262E-3,-2.9293096E-1,-9.823373E-2,-1.06182E-1,-3.0618804E-3,4.6122316E-2,-1.4105719E-3,-1.5753737E-1,6.356095E-2],"categories":[],"categories_nodes":[],"categories_segments":[],"categories_sizes":[],"default_left":[0,0,0,0,0,0,0,0,0,0,0,0,0,0,0,0,0,0,0,0,0,0,0,0,0],"id":30,"left_children":[1,3,5,7,9,11,13,15,17,19,21,-1,-1,23,-1,-1,-1,-1,-1,-1,-1,-1,-1,-1,-1],"loss_changes":[9.16776E0,8.922537E0,9.375003E0,4.0135756E0,8.964731E0,2.3301067E0,2.954565E0,4.4499617E0,2.3203726E0,1.716772E1,1.0906683E1,0E0,0E0,6.6238E-1,0E0,0E0,0E0,0E0,0E0,0E0,0E0,0E0,0E0,0E0,0E0],"parents":[2147483647,0,0,1,1,2,2,3,3,4,4,5,5,6,6,7,7,8,8,9,9,10,10,13,13],"right_children":[2,4,6,8,10,12,14,16,18,20,22,-1,-1,24,-1,-1,-1,-1,-1,-1,-1,-1,-1,-1,-1],"split_conditions":[1E0,1E0,1.5E2,1E0,1.5E1,2.05E2,1E2,1E0,8E0,7.277E1,2.1E1,-3.054462E-1,6.1352517E-2,2.21E2,2.5209284E-1,-2.530567E-1,1.5649262E-3,-2.9293096E-1,-9.823373E-2,-1.06182E-1,-3.0618804E-3,4.6122316E-2,-1.4105719E-3,-1.5753737E-1,6.356095E-2],"split_indices":[4,5,5,17,8,12,12,3,7,12,8,0,0,5,0,0,0,0,0,0,0,0,0,0,0],"split_type":[0,0,0,0,0,0,0,0,0,0,0,0,0,0,0,0,0,0,0,0,0,0,0,0,0],"sum_hessian":[3.462714E3,3.435603E3,2.711091E1,6.2653324E1,3.3729497E3,1.945366E1,7.6572514E0,3.8406097E1,2.4247229E1,1.5492383E3,1.8237114E3,1.808638E1,1.3672775E0,3.6259906E0,4.031261E0,6.666678E0,3.1739418E1,1.2168154E1,1.2079075E1,1.6129976E2,1.3879386E3,7.1217035E2,1.1115411E3,2.4105055E0,1.2154851E0],"tree_param":{"num_deleted":"0","num_feature":"30","num_nodes":"25","size_leaf_vector":"1"}},{"base_weights":[-2.0291307E-3,3.6585208E-2,-6.2227864E-2,4.375172E-2,-6.3751316E-1,-4.7783634E-1,-3.49627E-2,3.853598E-2,9.4472677E-1,-1.0974292E0,1.555499E-1,-3.2067004E-1,-7.6170355E-1,-1.24519445E-1,6.631929E-2,-1.1028592E-2,2.9545732E-2,3.1683558E-1,3.4940854E-2,-4.2179695E-1,9.639592E-2,-2.3029955E-1,1.3963595E-1,-1.4008132E-1,1.4051676E-1,-2.7316725E-1,3.355553E-2,1.03216626E-1,-5.9769504E-2,-8.193146E-3,2.3066373E-1],"categories":[],"categories_nodes":[],"categories_segments":[],"categories_sizes":[],"default_left":[0,0,0,0,0,0,0,0,0,0,0,0,0,0,0,0,0,0,0,0,0,0,0,0,0,0,0,0,0,0,0],"id":31,"left_children":[1,3,5,7,9,11,13,15,17,19,21,23,25,27,29,-1,-1,-1,-1,-1,-1,-1,-1,-1,-1,-1,-1,-1,-1,-1,-1],"loss_changes":[8.031565E0,1.01968155E1,1.5283133E1,9.755673E0,8.270605E0,3.4607162E0,1.151094E1,9.36045E0,9.7959614E-1,6.6593513E0,2.9400544E0,6.5869923E0,3.8554192E0,2.3642319E1,3.9210842E1,0E0,0E0,0E0,0E0,0E0,0E0,0E0,0E0,0E0,0E0,0E0,0E0,0E0,0E0,0E0,0E0],"parents":[2147483647,0,0,1,1,2,2,3,3,4,4,5,5,6,6,7,7,8,8,9,9,10,10,11,11,12,12,13,13,14,14],"right_children":[2,4,6,8,10,12,14,16,18,20,22,24,26,28,30,-1,-1,-1,-1,-1,-1,-1,-1,-1,-1,-1,-1,-1,-1,-1,-1],"split_conditions":[1E0,1E0,7E0,2.05E2,2.2E1,2E1,1.06E2,1E0,1.2E1,1.05E2,3.1E1,1.7E1,1E1,2.018E3,1.42E2,-1.1028592E-2,2.9545732E-2,3.1683558E-1,3.4940854E-2,-4.2179695E-1,9.639592E-2,-2.3029955E-1,1.3963595E-1,-1.4008132E-1,1.4051676E-1,-2.7316725E-1,3.355553E-2,1.03216626E-1,-5.9769504E-2,-8.193146E-3,2.3066373E-1],"split_indices":[13,22,5,12,8,8,12,2,7,5,5,8,7,6,5,0,0,0,0,0,0,0,0,0,0,0,0,0,0,0,0],"split_type":[0,0,0,0,0,0,0,0,0,0,0,0,0,0,0,0,0,0,0,0,0,0,0,0,0,0,0,0,0,0,0],"sum_hessian":[3.453149E3,2.1039604E3,1.3491884E3,2.0827534E3,2.1207182E1,8.2044334E1,1.267144E3,2.0718025E3,1.0950881E1,1.3180002E1,8.02718E0,5.417782E1,2.7866514E1,6.7237726E2,5.947668E2,9.1851666E2,1.1532858E3,9.410199E0,1.5406821E0,1.0832959E1,2.3470438E0,1.6461414E0,6.381038E0,4.6049812E1,8.128004E0,2.3773201E1,4.093313E0,9.1968796E1,5.804085E2,5.256719E2,6.909489E1],"tree_param":{"num_deleted":"0","num_feature":"30","num_nodes":"31","size_leaf_vector":"1"}},{"base_weights":[-1.7726221E-3,7.555326E-4,-2.8904435E-1,-6.788186E-3,3.007537E-1,-3.0310532E-2,1.1355396E-1,-1.3834923E-2,9.2891425E-1,-2.8478098E-3,-1.0355663E-1,1.0161953E-1,-1.2870909E-2,1.3928175E-1,-1.0075378E-1,3.3208027E-1,1.2882312E-2],"categories":[],"categories_nodes":[],"categories_segments":[],"categories_sizes":[],"default_left":[0,0,0,0,0,0,0,0,0,0,0,0,0,0,0,0,0],"id":32,"left_children":[1,3,-1,5,7,9,11,13,15,-1,-1,-1,-1,-1,-1,-1,-1],"loss_changes":[8.32528E0,7.732491E0,0E0,9.438418E0,1.6574745E1,1.8278048E1,1.9221455E1,8.905015E0,4.365732E0,0E0,0E0,0E0,0E0,0E0,0E0,0E0,0E0],"parents":[2147483647,0,0,1,1,3,3,4,4,5,5,6,6,7,7,8,8],"right_children":[2,4,-1,6,8,10,12,14,16,-1,-1,-1,-1,-1,-1,-1,-1],"split_conditions":[3E0,3.01E2,-2.8904435E-1,4E0,1.1E1,2E0,7.4E1,1E0,3.15E2,-2.8478098E-3,-1.0355663E-1,1.0161953E-1,-1.2870909E-2,1.3928175E-1,-1.0075378E-1,3.3208027E-1,1.2882312E-2],"split_indices":[13,5,0,3,7,13,5,2,5,0,0,0,0,0,0,0,0],"split_type":[0,0,0,0,0,0,0,0,0,0,0,0,0,0,0,0,0],"sum_hessian":[3.4228425E3,3.4148647E3,7.9778366E0,3.3320547E3,8.2810074E1,2.787878E3,5.4417676E2,5.5828575E1,2.6981495E1,2.6159568E3,1.71921E2,2.2261595E2,3.2156082E2,2.2290644E1,3.3537933E1,2.2259468E1,4.7220273E0],"tree_param":{"num_deleted":"0","num_feature":"30","num_nodes":"17","size_leaf_vector":"1"}},{"base_weights":[-1.288977E-3,7.10211E-2,-3.386899E-2,-4.6304677E-2,2.3807174E-1,1.7685171E-2,-1.7748722E-1,-2.24596E-2,-2.8902784E-1,3.162732E-1,-3.089001E-1,1.4833838E-1,-2.3674032E-2,-6.031066E-1,-1.1225721E-1,-2.1298393E-3,-3.5597748E-1,2.3913819E-1,5.8476474E-2,-4.0882474E-1,5.0381534E-2,-1.3269056E-1,5.8235187E-2,-1.8021652E-2,8.4034145E-2,3.374816E-1,-1.9342048E-1,2.3783217E-1,-4.8332255E-2],"categories":[],"categories_nodes":[],"categories_segments":[],"categories_sizes":[],"default_left":[0,0,0,0,0,0,0,0,0,0,0,0,0,0,0,0,0,0,0,0,0,0,0,0,0,0,0,0,0],"id":33,"left_children":[1,3,5,7,9,11,13,15,-1,17,19,21,23,25,27,-1,-1,-1,-1,-1,-1,-1,-1,-1,-1,-1,-1,-1,-1],"loss_changes":[8.046145E0,2.0803131E1,1.7436075E1,1.3624825E1,1.8825985E1,9.370684E0,1.7201593E1,1.08852625E1,0E0,2.222676E1,2.8005238E1,1.1359399E1,1.4585181E1,6.6551647E0,2.402772E1,0E0,0E0,0E0,0E0,0E0,0E0,0E0,0E0,0E0,0E0,0E0,0E0,0E0,0E0],"parents":[2147483647,0,0,1,1,2,2,3,3,4,4,5,5,6,6,7,7,9,9,10,10,11,11,12,12,13,13,14,14],"right_children":[2,4,6,8,10,12,14,16,-1,18,20,22,24,26,28,-1,-1,-1,-1,-1,-1,-1,-1,-1,-1,-1,-1,-1,-1],"split_conditions":[2E0,6.8E1,1E0,2E0,2.21E2,1E0,6E1,1E0,-2.8902784E-1,2.018E3,2.018E3,6.7E1,1E0,4.8E1,7.1E1,-2.1298393E-3,-3.5597748E-1,2.3913819E-1,5.8476474E-2,-4.0882474E-1,5.0381534E-2,-1.3269056E-1,5.8235187E-2,-1.8021652E-2,8.4034145E-2,3.374816E-1,-1.9342048E-1,2.3783217E-1,-4.8332255E-2],"split_indices":[3,5,28,13,5,14,5,19,0,6,6,12,1,12,5,0,0,0,0,0,0,0,0,0,0,0,0,0,0],"split_type":[0,0,0,0,0,0,0,0,0,0,0,0,0,0,0,0,0,0,0,0,0,0,0,0,0,0,0,0,0],"sum_hessian":[3.4133489E3,1.0598572E3,2.3534917E3,6.230143E2,4.368429E2,1.7324697E3,6.2102203E2,6.08225E2,1.4789307E1,3.8256827E2,5.427464E1,4.1593854E2,1.3165312E3,8.143313E1,5.395889E2,6.0129724E2,6.9277167E0,7.596991E1,3.0659836E2,1.6328825E1,3.7945812E1,2.929624E1,3.866423E2,1.1763856E3,1.401456E2,1.3034115E0,8.0129715E1,2.6853607E1,5.127353E2],"tree_param":{"num_deleted":"0","num_feature":"30","num_nodes":"29","size_leaf_vector":"1"}},{"base_weights":[-2.0434344E-3,-1.2092947E-2,2.2969735E-1,-1.3068336E-3,-2.2894782E-1,-3.3614865E-1,3.9063373E-1,-5.039338E-1,3.6041474E-3,-2.9331625E-1,-1.5686531E-1,-5.513964E-1,9.69057E-1,5.31402E-1,-3.5218996E-1,-2.9760304E-1,-4.4614427E-2,4.0715066E-4,2.9917789E-1,2.896562E-3,-1.8720286E-1,-2.6018187E-1,7.508491E-2,1.8747339E-2,3.633992E-1,2.1484466E-1,-2.6100121E-2,1.180613E-2,-5.240754E-1],"categories":[],"categories_nodes":[],"categories_segments":[],"categories_sizes":[],"default_left":[0,0,0,0,0,0,0,0,0,0,0,0,0,0,0,0,0,0,0,0,0,0,0,0,0,0,0,0,0],"id":34,"left_children":[1,3,5,7,9,11,13,15,17,-1,19,21,23,25,27,-1,-1,-1,-1,-1,-1,-1,-1,-1,-1,-1,-1,-1,-1],"loss_changes":[7.921418E0,7.6244845E0,1.3005367E1,7.6695447E0,8.182897E0,9.480228E0,1.1744776E1,5.064889E0,6.869408E0,0E0,1.1058258E1,7.300434E0,9.940505E-1,1.0723827E1,1.0013315E1,0E0,0E0,0E0,0E0,0E0,0E0,0E0,0E0,0E0,0E0,0E0,0E0,0E0,0E0],"parents":[2147483647,0,0,1,1,2,2,3,3,4,4,5,5,6,6,7,7,8,8,10,10,11,11,12,12,13,13,14,14],"right_children":[2,4,6,8,10,12,14,16,18,-1,20,22,24,26,28,-1,-1,-1,-1,-1,-1,-1,-1,-1,-1,-1,-1,-1,-1],"split_conditions":[2.73E2,1.2E1,2E0,2E0,2.5E1,1E0,4E0,2.5E1,1E1,-2.9331625E-1,1.52E2,3.49E2,1.1E1,1E0,3.35E2,-2.9760304E-1,-4.4614427E-2,4.0715066E-4,2.9917789E-1,2.896562E-3,-1.8720286E-1,-2.6018187E-1,7.508491E-2,1.8747339E-2,3.633992E-1,2.1484466E-1,-2.6100121E-2,1.180613E-2,-5.240754E-1],"split_indices":[5,7,0,7,5,29,3,5,3,0,5,5,8,13,5,0,0,0,0,0,0,0,0,0,0,0,0,0,0],"split_type":[0,0,0,0,0,0,0,0,0,0,0,0,0,0,0,0,0,0,0,0,0,0,0,0,0,0,0,0,0],"sum_hessian":[3.3991897E3,3.2588179E3,1.4037186E2,3.1053665E3,1.5345135E2,3.0842419E1,1.09529434E2,2.9064571E1,3.076302E3,1.2371874E1,1.4107948E2,2.6971893E1,3.8705251E0,9.2319176E1,1.7210258E1,1.148767E1,1.7576902E1,3.07036E3,5.941718E0,1.0472723E2,3.6352253E1,1.928961E1,7.6822824E0,1.0815184E0,2.7890067E0,7.096147E1,2.13577E1,1.41966095E1,3.0136485E0],"tree_param":{"num_deleted":"0","num_feature":"30","num_nodes":"29","size_leaf_vector":"1"}},{"base_weights":[-1.6173908E-3,-3.1118846E-1,4.5980485E-3,1.4132899E-1,-5.1379186E-1,4.41156E-1,-5.273448E-3,-5.199671E-1,5.32378E-1,-6.961331E-1,1.4712276E-2,6.1901983E-2,9.969193E-1,2.4785206E-2,-1.003676E-1,1.3184711E-1,-2.1737464E-1,3.521617E-1,-2.1165599E-1,-3.0303279E-2,-3.017109E-1,-2.12308E-1,2.2734302E-1,3.7079203E-1,-9.789005E-2,3.2587767E-1,-2.0142E-1,-7.0232595E-4,6.838863E-2,-2.7088577E-1,-2.0085644E-2],"categories":[],"categories_nodes":[],"categories_segments":[],"categories_sizes":[],"default_left":[0,0,0,0,0,0,0,0,0,0,0,0,0,0,0,0,0,0,0,0,0,0,0,0,0,0,0,0,0,0,0],"id":35,"left_children":[1,3,5,7,9,11,13,15,17,19,21,23,25,27,29,-1,-1,-1,-1,-1,-1,-1,-1,-1,-1,-1,-1,-1,-1,-1,-1],"loss_changes":[6.5117984E0,6.1796246E0,1.4300942E1,5.8068314E0,4.4650106E0,1.5404688E1,9.27962E0,1.9778016E0,1.1891788E1,6.23407E0,7.4274487E0,2.0768127E1,5.1555634E0,1.3596484E1,2.085022E1,0E0,0E0,0E0,0E0,0E0,0E0,0E0,0E0,0E0,0E0,0E0,0E0,0E0,0E0,0E0,0E0],"parents":[2147483647,0,0,1,1,2,2,3,3,4,4,5,5,6,6,7,7,8,8,9,9,10,10,11,11,12,12,13,13,14,14],"right_children":[2,4,6,8,10,12,14,16,18,20,22,24,26,28,30,-1,-1,-1,-1,-1,-1,-1,-1,-1,-1,-1,-1,-1,-1,-1,-1],"split_conditions":[6E1,2.018E3,6.5E1,2E0,1.1E1,1.15E2,1E0,8E0,1E1,5.5E1,1.6E1,2E0,1E0,1.51E2,3E0,1.3184711E-1,-2.1737464E-1,3.521617E-1,-2.1165599E-1,-3.0303279E-2,-3.017109E-1,-2.12308E-1,2.2734302E-1,3.7079203E-1,-9.789005E-2,3.2587767E-1,-2.0142E-1,-7.0232595E-4,6.838863E-2,-2.7088577E-1,-2.0085644E-2],"split_indices":[12,6,12,0,7,5,28,8,7,5,8,5,21,5,7,0,0,0,0,0,0,0,0,0,0,0,0,0,0,0,0],"split_type":[0,0,0,0,0,0,0,0,0,0,0,0,0,0,0,0,0,0,0,0,0,0,0,0,0,0,0,0,0,0,0],"sum_hessian":[3.3825557E3,6.561109E1,3.3169446E3,2.0384491E1,4.5226597E1,7.237856E1,3.244566E3,7.4523244E0,1.2932166E1,3.3389565E1,1.1837035E1,4.368156E1,2.8697004E1,2.465862E3,7.7870386E2,1.1081628E0,6.3441615E0,8.552088E0,4.380079E0,1.1879164E1,2.1510399E1,6.0262427E0,5.810793E0,1.0311577E1,3.3369984E1,2.7569529E1,1.1274759E0,2.1762922E3,2.8956985E2,3.008516E1,7.486187E2],"tree_param":{"num_deleted":"0","num_feature":"30","num_nodes":"31","size_leaf_vector":"1"}},{"base_weights":[-1.4134938E-3,2.3015216E-3,-5.5420476E-1,4.3272264E-3,-2.774878E-1,-8.768824E-1,2.3431231E-1,2.1372328E-3,8.055283E-1,-2.9266107E-1,3.730257E-2,-2.133018E-1,2.0805874E-1,-3.7244685E-2,4.744162E-3,-1.6538785E-1,3.8805708E-1,3.5113387E-2,-1.7517278E-1],"categories":[],"categories_nodes":[],"categories_segments":[],"categories_sizes":[],"default_left":[0,0,0,0,0,0,0,0,0,0,0,0,0,0,0,0,0,0,0],"id":36,"left_children":[1,3,5,7,-1,9,11,13,15,-1,-1,17,-1,-1,-1,-1,-1,-1,-1],"loss_changes":[6.9041557E0,6.2774644E0,5.915767E0,5.847466E0,0E0,1.7151985E0,1.6497524E0,5.7456646E0,6.7281423E0,0E0,0E0,6.1494756E-1,0E0,0E0,0E0,0E0,0E0,0E0,0E0],"parents":[2147483647,0,0,1,1,2,2,3,3,5,5,6,6,7,7,8,8,11,11],"right_children":[2,4,6,8,-1,10,12,14,16,-1,-1,18,-1,-1,-1,-1,-1,-1,-1],"split_conditions":[1E0,3E0,1.5E2,1E0,-2.774878E-1,2.05E2,1E2,9E0,5E0,-2.9266107E-1,3.730257E-2,9E0,2.0805874E-1,-3.7244685E-2,4.744162E-3,-1.6538785E-1,3.8805708E-1,3.5113387E-2,-1.7517278E-1],"split_indices":[4,13,5,25,0,12,12,5,7,0,0,7,0,0,0,0,0,0,0],"split_type":[0,0,0,0,0,0,0,0,0,0,0,0,0,0,0,0,0,0,0],"sum_hessian":[3.36031E3,3.3388672E3,2.1442911E1,3.332582E3,6.2850637E0,1.5136623E1,6.306287E0,3.3244976E3,8.084475E0,1.3802287E1,1.3343363E0,3.464668E0,2.841619E0,3.2406805E2,3.0004294E3,2.1042132E0,5.9802613E0,2.1935747E0,1.2710935E0],"tree_param":{"num_deleted":"0","num_feature":"30","num_nodes":"19","size_leaf_vector":"1"}},{"base_weights":[-1.3976536E-3,1.3707493E-3,-6.2406576E-1,-7.66177E-3,2.8197584E-1,-2.9060277E-1,2.9866132E-1,-2.1294454E-1,2.0643387E-3,1.247027E-1,1.6078455E0,8.771982E-1,-2.0647255E-1,1.6143417E-1,-1.1433771E-1,-1.0511982E-2,2.4964986E-2,3.1974643E-1,-2.7900284E-2,5.2921656E-3,5.6803405E-1,5.6273673E-2,3.7172186E-1],"categories":[],"categories_nodes":[],"categories_segments":[],"categories_sizes":[],"default_left":[0,0,0,0,0,0,0,0,0,0,0,0,0,0,0,0,0,0,0,0,0,0,0],"id":37,"left_children":[1,3,5,7,9,-1,11,13,15,17,19,21,-1,-1,-1,-1,-1,-1,-1,-1,-1,-1,-1],"loss_changes":[5.781075E0,8.465974E0,5.0096097E0,6.4618077E0,2.1520569E1,0E0,3.3448086E0,1.8697565E1,9.309554E0,1.9400156E1,4.9450245E0,6.325972E-1,0E0,0E0,0E0,0E0,0E0,0E0,0E0,0E0,0E0,0E0,0E0],"parents":[2147483647,0,0,1,1,2,2,3,3,4,4,6,6,7,7,8,8,9,9,10,10,11,11],"right_children":[2,4,6,8,10,-1,12,14,16,18,20,22,-1,-1,-1,-1,-1,-1,-1,-1,-1,-1,-1],"split_conditions":[1E0,1E0,3.3E1,4E0,3E1,-2.9060277E-1,8E0,3E0,1.15E2,5E0,2.7E1,3E0,-2.0647255E-1,1.6143417E-1,-1.1433771E-1,-1.0511982E-2,2.4964986E-2,3.1974643E-1,-2.7900284E-2,5.2921656E-3,5.6803405E-1,5.6273673E-2,3.7172186E-1],"split_indices":[11,27,5,5,8,0,7,7,12,5,5,10,0,0,0,0,0,0,0,0,0,0,0],"split_type":[0,0,0,0,0,0,0,0,0,0,0,0,0,0,0,0,0,0,0,0,0,0,0],"sum_hessian":[3.352192E3,3.3383474E3,1.3844604E1,3.2351814E3,1.0316597E2,1.0043769E1,3.8008351E0,1.45401E2,3.0897803E3,9.320425E1,9.961725E0,2.4662464E0,1.3345886E0,2.619967E1,1.1920133E2,2.1207183E3,9.690622E2,1.6778055E1,7.642619E1,1.678384E0,8.283341E0,1.3713113E0,1.0949352E0],"tree_param":{"num_deleted":"0","num_feature":"30","num_nodes":"23","size_leaf_vector":"1"}},{"base_weights":[-1.2323533E-3,-4.291281E-3,5.628164E-1,2.1100368E-2,-6.392251E-2,7.949201E-1,-3.6046833E-2,-2.0850688E-2,2.794737E-1,-3.7865758E-1,7.8002264E-4,3.740096E-1,2.4802661E-1,-1.3807139E-1,3.6130288E-1,2.6860964E-3,-6.453717E-2,2.7479827E-1,3.812373E-2,-1.4622101E-1,2.1105497E-1,3.8068987E-2,-7.18303E-2,5.1022684E-3,2.0268339E-1,1.5148695E-1,1.678125E-2],"categories":[],"categories_nodes":[],"categories_segments":[],"categories_sizes":[],"default_left":[0,0,0,0,0,0,0,0,0,0,0,0,0,0,0,0,0,0,0,0,0,0,0,0,0,0,0],"id":38,"left_children":[1,3,5,7,9,11,13,15,17,19,21,-1,23,-1,25,-1,-1,-1,-1,-1,-1,-1,-1,-1,-1,-1,-1],"loss_changes":[5.7713637E0,5.038166E0,2.5365324E0,2.5302301E1,2.0236147E1,2.914195E0,1.1769598E0,1.1633009E1,3.1513369E1,2.0284079E1,2.5031336E1,0E0,6.948104E-1,0E0,1.3214305E-1,0E0,0E0,0E0,0E0,0E0,0E0,0E0,0E0,0E0,0E0,0E0,0E0],"parents":[2147483647,0,0,1,1,2,2,3,3,4,4,5,5,6,6,7,7,8,8,9,9,10,10,12,12,14,14],"right_children":[2,4,6,8,10,12,14,16,18,20,22,-1,24,-1,26,-1,-1,-1,-1,-1,-1,-1,-1,-1,-1,-1,-1],"split_conditions":[3.49E2,1.17E2,2E0,9.9E1,2E0,8.64E1,1E0,1E0,2.018E3,1.15E2,2E0,3.740096E-1,9.7E1,-1.3807139E-1,3E0,2.6860964E-3,-6.453717E-2,2.7479827E-1,3.812373E-2,-1.4622101E-1,2.1105497E-1,3.8068987E-2,-7.18303E-2,5.1022684E-3,2.0268339E-1,1.5148695E-1,1.678125E-2],"split_indices":[5,5,2,5,0,12,13,28,6,12,2,0,12,0,3,0,0,0,0,0,0,0,0,0,0,0,0],"split_type":[0,0,0,0,0,0,0,0,0,0,0,0,0,0,0,0,0,0,0,0,0,0,0,0,0,0,0],"sum_hessian":[3.342573E3,3.3255305E3,1.70425E1,2.332831E3,9.926995E2,1.2046291E1,4.996209E0,2.0077584E3,3.250725E2,1.6844989E2,8.2424963E2,5.896063E0,6.1502285E0,2.3399374E0,2.6562717E0,1.7415354E3,2.6622302E2,6.1826294E1,2.6324622E2,1.5356773E2,1.4882148E1,5.407949E2,2.834547E2,4.6679597E0,1.4822687E0,1.3619522E0,1.2943195E0],"tree_param":{"num_deleted":"0","num_feature":"30","num_nodes":"27","size_leaf_vector":"1"}},{"base_weights":[-7.3840393E-4,3.3038612E-2,-5.2771684E-2,-1.1271258E-1,6.904312E-2,2.1570449E-1,-8.154702E-2,3.121976E-1,-2.6821223E-1,-2.9650863E-2,1.491005E-1,-2.4462518E-1,2.8209472E-1,-1.8644747E-1,2.9165536E-2,1.784423E-1,-4.8322998E-2,-1.7095621E-1,-1.5298704E-2,-6.346715E-2,6.392007E-2,-9.13008E-3,7.729561E-2,-5.0365943E-3,1.6386487E-1,2.0788808E-1,-7.899116E-2,-9.33184E-2,2.9663604E-2],"categories":[],"categories_nodes":[],"categories_segments":[],"categories_sizes":[],"default_left":[0,0,0,0,0,0,0,0,0,0,0,0,0,0,0,0,0,0,0,0,0,0,0,0,0,0,0,0,0],"id":39,"left_children":[1,3,5,7,9,11,13,15,17,19,21,-1,23,25,27,-1,-1,-1,-1,-1,-1,-1,-1,-1,-1,-1,-1,-1,-1],"loss_changes":[5.8456173E0,1.0591581E1,1.0131849E1,2.6506649E1,1.278808E1,8.924778E0,1.3746817E1,1.4487722E1,1.9188496E1,3.2075603E1,1.7420614E1,0E0,9.487792E0,4.1254364E1,1.3704695E1,0E0,0E0,0E0,0E0,0E0,0E0,0E0,0E0,0E0,0E0,0E0,0E0,0E0,0E0],"parents":[2147483647,0,0,1,1,2,2,3,3,4,4,5,5,6,6,7,7,8,8,9,9,10,10,12,12,13,13,14,14],"right_children":[2,4,6,8,10,12,14,16,18,20,22,-1,24,26,28,-1,-1,-1,-1,-1,-1,-1,-1,-1,-1,-1,-1,-1,-1],"split_conditions":[1E0,1E0,4E0,2.8E1,1E0,1E0,9E0,7E0,1.15E2,1E2,8.5E1,-2.4462518E-1,3.6E1,2.018E3,2.018E3,1.784423E-1,-4.8322998E-2,-1.7095621E-1,-1.5298704E-2,-6.346715E-2,6.392007E-2,-9.13008E-3,7.729561E-2,-5.0365943E-3,1.6386487E-1,2.0788808E-1,-7.899116E-2,-9.33184E-2,2.9663604E-2],"split_indices":[13,18,7,5,2,29,7,7,12,5,12,0,5,6,6,0,0,0,0,0,0,0,0,0,0,0,0,0,0],"split_type":[0,0,0,0,0,0,0,0,0,0,0,0,0,0,0,0,0,0,0,0,0,0,0,0,0,0,0,0,0],"sum_hessian":[3.324051E3,2.0158452E3,1.3082058E3,3.9890256E2,1.6169426E3,1.2601157E2,1.1821942E3,1.0660142E2,2.9230115E2,7.2446216E2,8.924805E2,6.9401603E0,1.1907142E2,6.0667957E2,5.7551465E2,6.658449E1,4.0016926E1,1.2169026E2,1.7061089E2,4.1418045E2,3.1028168E2,3.3656052E2,5.5592004E2,5.6299076E1,6.277234E1,4.811546E1,5.5856415E2,9.728151E1,4.7823312E2],"tree_param":{"num_deleted":"0","num_feature":"30","num_nodes":"29","size_leaf_vector":"1"}},{"base_weights":[-1.2047142E-3,-5.6014075E-3,3.7287417E-1,7.749181E-2,-2.7730713E-2,2.1783453E-1,9.926849E-1,2.0563541E-1,-1.778752E-1,-7.488856E-1,-5.8405497E-3,-4.4227546E-1,4.21862E-1,3.8913924E-1,3.758649E-1,-1.5147059E-1,7.823059E-2,-2.7109176E-1,-1.6056554E-2,-3.1796077E-1,-1.2833185E-1,-7.456087E-2,7.816058E-3,-2.0568363E-1,1.01731956E-1,1.9795589E-1,-5.0699536E-2,-8.1466645E-2,2.4997166E-1],"categories":[],"categories_nodes":[],"categories_segments":[],"categories_sizes":[],"default_left":[0,0,0,0,0,0,0,0,0,0,0,0,0,0,0,0,0,0,0,0,0,0,0,0,0,0,0,0,0],"id":40,"left_children":[1,3,5,7,9,11,13,15,17,19,21,23,25,27,-1,-1,-1,-1,-1,-1,-1,-1,-1,-1,-1,-1,-1,-1,-1],"loss_changes":[5.4345913E0,6.0069733E0,3.4724154E0,2.251958E1,4.0717274E1,4.4944754E0,6.7446566E-1,1.8071575E1,2.0718853E1,7.134697E0,1.9393362E1,1.7612615E0,3.6193738E0,1.3059045E0,0E0,0E0,0E0,0E0,0E0,0E0,0E0,0E0,0E0,0E0,0E0,0E0,0E0,0E0,0E0],"parents":[2147483647,0,0,1,1,2,2,3,3,4,4,5,5,6,6,7,7,8,8,9,9,10,10,11,11,12,12,13,13],"right_children":[2,4,6,8,10,12,14,16,18,20,22,24,26,28,-1,-1,-1,-1,-1,-1,-1,-1,-1,-1,-1,-1,-1,-1,-1],"split_conditions":[1.9888E2,8.03E1,8.7E1,1.21E2,8.177E1,1.1E1,2.05E2,1E0,5E0,1E0,2.018E3,2E0,2.5E1,1.12E2,3.758649E-1,-1.5147059E-1,7.823059E-2,-2.7109176E-1,-1.6056554E-2,-3.1796077E-1,-1.2833185E-1,-7.456087E-2,7.816058E-3,-2.0568363E-1,1.01731956E-1,1.9795589E-1,-5.0699536E-2,-8.1466645E-2,2.4997166E-1],"split_indices":[12,12,5,5,12,8,12,18,7,29,6,2,8,5,0,0,0,0,0,0,0,0,0,0,0,0,0,0,0],"split_type":[0,0,0,0,0,0,0,0,0,0,0,0,0,0,0,0,0,0,0,0,0,0,0,0,0,0,0,0,0],"sum_hessian":[3.3020151E3,3.2646296E3,3.738542E1,6.8605676E2,2.578573E3,3.0986025E1,6.3993998E0,4.5695215E2,2.2910461E2,7.498656E1,2.5035864E3,7.04026E0,2.3945765E1,2.6795545E0,3.7198453E0,3.2316086E1,4.2463608E2,3.2596256E1,1.9650836E2,3.692535E1,3.8061207E1,2.900069E2,2.2135793E3,5.4618917E0,1.578368E0,1.6986897E1,6.9588675E0,1.2332913E0,1.4462631E0],"tree_param":{"num_deleted":"0","num_feature":"30","num_nodes":"29","size_leaf_vector":"1"}},{"base_weights":[-1.532235E-3,7.7076657E-3,-1.7789723E-1,-1.4222347E-2,1.0689983E-1,-9.1610414E-1,-1.15892604E-1,1.750469E-2,-2.1127139E-1,-6.3795574E-2,1.0199742E0,-2.896108E-1,-5.419961E-2,-2.8260136E-1,-5.8597147E-2,5.146708E-2,-5.936176E-3,-2.2715822E-1,-4.2189136E-2,6.2709734E-2,-7.627477E-2,3.2620978E-1,-2.4304421E-1,4.776283E-2,-6.954098E-2],"categories":[],"categories_nodes":[],"categories_segments":[],"categories_sizes":[],"default_left":[0,0,0,0,0,0,0,0,0,0,0,0,0,0,0,0,0,0,0,0,0,0,0,0,0],"id":41,"left_children":[1,3,5,7,9,11,13,15,17,19,21,-1,-1,-1,23,-1,-1,-1,-1,-1,-1,-1,-1,-1,-1],"loss_changes":[5.375191E0,6.8198104E0,7.409944E0,1.6057062E1,8.853431E1,2.8133774E-1,7.16906E0,1.2714703E1,1.362957E1,2.4951204E1,1.1914612E1,0E0,0E0,0E0,5.461645E0,0E0,0E0,0E0,0E0,0E0,0E0,0E0,0E0,0E0,0E0],"parents":[2147483647,0,0,1,1,2,2,3,3,4,4,5,5,6,6,7,7,8,8,9,9,10,10,14,14],"right_children":[2,4,6,8,10,12,14,16,18,20,22,-1,-1,-1,24,-1,-1,-1,-1,-1,-1,-1,-1,-1,-1],"split_conditions":[1.2E1,1.51E2,1E0,1.17E2,1.005E2,1.31E2,2.5E1,8.03E1,2E0,1E0,3E0,-2.896108E-1,-5.419961E-2,-2.8260136E-1,1E0,5.146708E-2,-5.936176E-3,-2.2715822E-1,-4.2189136E-2,6.2709734E-2,-7.627477E-2,3.2620978E-1,-2.4304421E-1,4.776283E-2,-6.954098E-2],"split_indices":[7,5,29,5,12,12,5,12,0,2,13,0,0,0,13,0,0,0,0,0,0,0,0,0,0],"split_type":[0,0,0,0,0,0,0,0,0,0,0,0,0,0,0,0,0,0,0,0,0,0,0,0,0],"sum_hessian":[3.2966414E3,3.1334346E3,1.632068E2,2.566806E3,5.6662866E2,1.1578784E1,1.5162802E2,2.211622E3,3.55184E2,4.781674E2,8.846124E1,1.0558832E1,1.019952E0,8.832718E0,1.427953E2,4.3033145E2,1.7812905E3,3.958064E1,3.1560336E2,1.9653302E2,2.8163437E2,8.5710915E1,2.7503304E0,6.3289547E1,7.950575E1],"tree_param":{"num_deleted":"0","num_feature":"30","num_nodes":"25","size_leaf_vector":"1"}},{"base_weights":[-6.4774154E-4,2.3080509E-3,-5.257188E-1,-2.7782062E-1,7.755909E-3,-8.215487E-1,1.8189466E-1,-4.5984244E-1,2.0970643E-2,3.255558E-1,9.0583117E-4,-2.7963048E-1,1.9234272E-2,4.2301244E-1,-1.2467372E-1,-1.7240058E-1,1.3166856E-2,1.0049098E-1,-2.8228688E-1,-8.469924E-3,2.5703627E-1,-4.9370676E-2,4.724432E-3,-2.2395488E-2,1.9175911E-1],"categories":[],"categories_nodes":[],"categories_segments":[],"categories_sizes":[],"default_left":[0,0,0,0,0,0,0,0,0,0,0,0,0,0,0,0,0,0,0,0,0,0,0,0,0],"id":42,"left_children":[1,3,5,7,9,11,13,15,17,19,21,-1,-1,23,-1,-1,-1,-1,-1,-1,-1,-1,-1,-1,-1],"loss_changes":[5.076071E0,4.965909E0,3.9820194E0,3.3857145E0,6.9474463E0,1.341649E0,1.0713325E0,2.259015E0,7.702098E0,1.2679848E1,7.67805E0,0E0,0E0,5.775363E-1,0E0,0E0,0E0,0E0,0E0,0E0,0E0,0E0,0E0,0E0,0E0],"parents":[2147483647,0,0,1,1,2,2,3,3,4,4,5,5,6,6,7,7,8,8,9,9,10,10,13,13],"right_children":[2,4,6,8,10,12,14,16,18,20,22,-1,-1,24,-1,-1,-1,-1,-1,-1,-1,-1,-1,-1,-1],"split_conditions":[1E0,6E1,1.5E2,2.1E1,6.5E1,2.05E2,2.4E1,2.01E2,2.9E1,1.15E2,7.48E1,-2.7963048E-1,1.9234272E-2,1.3E1,-1.2467372E-1,-1.7240058E-1,1.3166856E-2,1.0049098E-1,-2.8228688E-1,-8.469924E-3,2.5703627E-1,-4.9370676E-2,4.724432E-3,-2.2395488E-2,1.9175911E-1],"split_indices":[4,12,5,8,12,12,8,5,8,5,12,0,0,8,0,0,0,0,0,0,0,0,0,0,0],"split_type":[0,0,0,0,0,0,0,0,0,0,0,0,0,0,0,0,0,0,0,0,0,0,0,0,0],"sum_hessian":[3.2688804E3,3.2515718E3,1.730853E1,6.1075504E1,3.1904963E3,1.20921755E1,5.2163544E0,3.7619144E1,2.3456362E1,6.6337425E1,3.124159E3,1.0703658E1,1.388518E0,3.9245522E0,1.2918024E0,3.0521027E1,7.098117E0,1.8175238E1,5.2811236E0,4.038725E1,2.595018E1,2.5632578E2,2.8678333E3,1.3867934E0,2.5377588E0],"tree_param":{"num_deleted":"0","num_feature":"30","num_nodes":"25","size_leaf_vector":"1"}},{"base_weights":[-7.462629E-4,-5.643122E-3,2.991775E-1,5.599302E-2,-3.416549E-2,8.3749413E-1,9.316923E-2,-1.5401389E-1,1.0374684E-1,-4.4895083E-2,3.514998E-1,1.0179403E0,-1.0474691E-1,3.2664192E-1,-1.5930866E-1,4.9594186E-2,-7.79722E-2,3.850891E-2,-9.05813E-2,-1.877606E-2,4.4448286E-2,-6.711566E-2,1.8783596E-1,-6.113E-2,3.7302712E-1,1.6810635E-1,-6.4684406E-2,-2.9461122E-1,5.5694687E-3],"categories":[],"categories_nodes":[],"categories_segments":[],"categories_sizes":[],"default_left":[0,0,0,0,0,0,0,0,0,0,0,0,0,0,0,0,0,0,0,0,0,0,0,0,0,0,0,0,0],"id":43,"left_children":[1,3,5,7,9,11,13,15,17,19,21,23,-1,25,27,-1,-1,-1,-1,-1,-1,-1,-1,-1,-1,-1,-1,-1,-1],"loss_changes":[4.79127E0,5.644645E0,5.733872E0,1.0203089E1,9.098455E0,3.4345245E0,2.3526056E0,6.420231E0,8.30958E0,7.3061633E0,9.543098E0,3.762146E0,0E0,2.732134E0,2.8606207E0,0E0,0E0,0E0,0E0,0E0,0E0,0E0,0E0,0E0,0E0,0E0,0E0,0E0,0E0],"parents":[2147483647,0,0,1,1,2,2,3,3,4,4,5,5,6,6,7,7,8,8,9,9,10,10,11,11,13,13,14,14],"right_children":[2,4,6,8,10,12,14,16,18,20,22,24,-1,26,28,-1,-1,-1,-1,-1,-1,-1,-1,-1,-1,-1,-1,-1,-1],"split_conditions":[6E0,2E0,2E0,9E0,1E0,2.8E1,8E0,1E0,2.21E2,2.32E2,1.3E1,1.1E1,-1.0474691E-1,2.3E1,1E0,4.9594186E-2,-7.79722E-2,3.850891E-2,-9.05813E-2,-1.877606E-2,4.4448286E-2,-6.711566E-2,1.8783596E-1,-6.113E-2,3.7302712E-1,1.6810635E-1,-6.4684406E-2,-2.9461122E-1,5.5694687E-3],"split_indices":[3,3,0,5,27,8,7,29,5,5,8,5,0,8,29,0,0,0,0,0,0,0,0,0,0,0,0,0,0],"split_type":[0,0,0,0,0,0,0,0,0,0,0,0,0,0,0,0,0,0,0,0,0,0,0,0,0,0,0,0,0],"sum_hessian":[3.2601372E3,3.2087295E3,5.140778E1,1.0148026E3,2.193927E3,1.3379833E1,3.8027946E1,1.875943E2,8.272083E2,2.1354014E3,5.8525402E1,1.17372055E1,1.642627E0,1.960498E1,1.8422966E1,4.6577133E1,1.4101717E2,7.8053076E2,4.6677567E1,1.9567587E3,1.7864284E2,1.8972013E1,3.955339E1,1.8437533E0,9.893453E0,1.3676874E1,5.928107E0,2.4713063E0,1.595166E1],"tree_param":{"num_deleted":"0","num_feature":"30","num_nodes":"29","size_leaf_vector":"1"}},{"base_weights":[-6.963373E-4,-7.541693E-2,1.7561492E-2,-1.4412121E-1,4.7842908E-1,1.22352995E-1,-2.3218354E-2,-4.7789726E-1,-5.7378046E-2,1.2973817E-1,1.3900639E0,2.2526492E-1,-9.045201E-2,-4.6955265E-2,2.0525713E-1,-2.3888855E-1,-6.262882E-2,1.0229615E-1,-3.8106207E-2,-7.122021E-2,1.3452467E-1,5.8099604E-1,2.1574925E-1,2.743167E-2,1.6478029E-1,-2.630339E-1,-1.1934617E-3,-1.671195E-2,1.2724224E-1,-1.0403079E-1,7.972628E-2],"categories":[],"categories_nodes":[],"categories_segments":[],"categories_sizes":[],"default_left":[0,0,0,0,0,0,0,0,0,0,0,0,0,0,0,0,0,0,0,0,0,0,0,0,0,0,0,0,0,0,0],"id":44,"left_children":[1,3,5,7,9,11,13,15,17,19,21,23,25,27,29,-1,-1,-1,-1,-1,-1,-1,-1,-1,-1,-1,-1,-1,-1,-1,-1],"loss_changes":[4.440542E0,2.4390165E1,1.118129E1,1.6458149E1,2.2315706E1,1.6072098E1,1.0226503E1,9.8868065E0,1.2613163E1,6.224637E0,5.749428E0,2.1383562E1,1.6290413E1,7.0626583E0,6.019525E0,0E0,0E0,0E0,0E0,0E0,0E0,0E0,0E0,0E0,0E0,0E0,0E0,0E0,0E0,0E0,0E0],"parents":[2147483647,0,0,1,1,2,2,3,3,4,4,5,5,6,6,7,7,8,8,9,9,10,10,11,11,12,12,13,13,14,14],"right_children":[2,4,6,8,10,12,14,16,18,20,22,24,26,28,30,-1,-1,-1,-1,-1,-1,-1,-1,-1,-1,-1,-1,-1,-1,-1,-1],"split_conditions":[2E0,4E0,1E0,1E0,1.1851E2,1.0842E2,1E0,8E0,7.308E1,5E0,1E0,1E1,1.094E2,1E0,9.754E1,-2.3888855E-1,-6.262882E-2,1.0229615E-1,-3.8106207E-2,-7.122021E-2,1.3452467E-1,5.8099604E-1,2.1574925E-1,2.743167E-2,1.6478029E-1,-2.630339E-1,-1.1934617E-3,-1.671195E-2,1.2724224E-1,-1.0403079E-1,7.972628E-2],"split_indices":[0,3,14,14,12,12,1,7,12,3,29,7,12,27,12,0,0,0,0,0,0,0,0,0,0,0,0,0,0,0,0],"split_type":[0,0,0,0,0,0,0,0,0,0,0,0,0,0,0,0,0,0,0,0,0,0,0,0,0,0,0,0,0,0,0],"sum_hessian":[3.252996E3,6.381641E2,2.614832E3,5.6839484E2,6.976927E1,7.319495E2,1.8828826E3,1.1631624E2,4.5207858E2,5.129267E1,1.8476603E1,4.9332184E2,2.3862767E2,1.7063953E3,1.7648737E2,5.2384445E1,6.3931797E1,6.6692474E1,3.8538614E2,2.3952614E1,2.7340057E1,9.141925E0,9.334678E0,3.5002838E2,1.4329347E2,2.2736828E1,2.1589085E2,1.6761404E3,3.0254782E1,1.6963766E1,1.5952359E2],"tree_param":{"num_deleted":"0","num_feature":"30","num_nodes":"31","size_leaf_vector":"1"}},{"base_weights":[-7.6128315E-4,7.910829E-3,-1.715929E-1,-9.202709E-3,1.07950166E-1,-8.694944E-1,-1.2308135E-1,-4.3182275E-3,-5.730837E-1,-1.7204762E-2,8.496044E-1,-5.82373E-2,-2.8066364E-1,-2.7293202E-1,-7.770144E-2,-2.5568178E-4,-2.2366498E-1,-2.4875124E-1,2.201908E-1,9.230493E-2,-6.8619594E-2,2.7234477E-1,-2.1407865E-1,-1.29013E-1,-1.0149141E-3],"categories":[],"categories_nodes":[],"categories_segments":[],"categories_sizes":[],"default_left":[0,0,0,0,0,0,0,0,0,0,0,0,0,0,0,0,0,0,0,0,0,0,0,0,0],"id":45,"left_children":[1,3,5,7,9,11,13,15,17,19,21,-1,-1,-1,23,-1,-1,-1,-1,-1,-1,-1,-1,-1,-1],"loss_changes":[4.812389E0,5.293784E0,5.2061987E0,7.2711267E0,4.194086E1,2.6602697E-1,5.2093325E0,6.7282276E0,8.197231E0,2.6696884E1,6.584114E0,0E0,0E0,0E0,3.6887846E0,0E0,0E0,0E0,0E0,0E0,0E0,0E0,0E0,0E0,0E0],"parents":[2147483647,0,0,1,1,2,2,3,3,4,4,5,5,6,6,7,7,8,8,9,9,10,10,14,14],"right_children":[2,4,6,8,10,12,14,16,18,20,22,-1,-1,-1,24,-1,-1,-1,-1,-1,-1,-1,-1,-1,-1],"split_conditions":[1.2E1,1.66E2,1E0,1.64E2,1E2,2E0,2.5E1,1E0,7E0,1E0,3E0,-5.82373E-2,-2.8066364E-1,-2.7293202E-1,2E0,-2.5568178E-4,-2.2366498E-1,-2.4875124E-1,2.201908E-1,9.230493E-2,-6.8619594E-2,2.7234477E-1,-2.1407865E-1,-1.29013E-1,-1.0149141E-3],"split_indices":[7,5,29,5,12,3,5,11,8,2,13,0,0,0,3,0,0,0,0,0,0,0,0,0,0],"split_type":[0,0,0,0,0,0,0,0,0,0,0,0,0,0,0,0,0,0,0,0,0,0,0,0,0],"sum_hessian":[3.246469E3,3.0905344E3,1.5593448E2,2.6398486E3,4.5068588E2,9.034732E0,1.4689975E2,2.618177E3,2.1671665E1,3.86449E2,6.423687E1,1.1557926E0,7.8789387E0,6.9728403E0,1.3992691E2,2.606988E3,1.118897E1,1.8426945E1,3.2447195E0,1.5221109E2,2.3423792E2,6.2334858E1,1.9020076E0,2.3539614E1,1.163873E2],"tree_param":{"num_deleted":"0","num_feature":"30","num_nodes":"25","size_leaf_vector":"1"}},{"base_weights":[-5.8466377E-4,1.0159042E-2,-1.4033057E-1,4.4267394E-2,-4.681957E-2,-3.072447E-1,2.3921387E-1,8.870939E-2,-6.472964E-2,1.2868909E-2,-2.63235E-1,-3.0592018E-1,6.390058E-3,1.6563308E-1,1.2058421E0,1.4302613E-2,3.6445647E-1,-8.64779E-2,2.9315345E-3,-1.750622E-2,5.5500437E-2,-2.9993605E-2,-1.8141691E-1,1.1852383E-1,-6.1125245E-2,1.9958667E-1,8.90388E-3,8.7530255E-2,5.011152E-1],"categories":[],"categories_nodes":[],"categories_segments":[],"categories_sizes":[],"default_left":[0,0,0,0,0,0,0,0,0,0,0,0,0,0,0,0,0,0,0,0,0,0,0,0,0,0,0,0,0],"id":46,"left_children":[1,3,5,7,9,11,13,15,17,19,21,-1,23,25,27,-1,-1,-1,-1,-1,-1,-1,-1,-1,-1,-1,-1,-1,-1],"loss_changes":[4.844532E0,5.8253994E0,1.4667063E1,9.087743E0,1.45034485E1,3.585742E1,4.8448176E0,6.150626E1,9.055839E0,1.0809216E1,1.3470797E1,0E0,9.260578E0,4.536115E0,1.5753598E0,0E0,0E0,0E0,0E0,0E0,0E0,0E0,0E0,0E0,0E0,0E0,0E0,0E0,0E0],"parents":[2147483647,0,0,1,1,2,2,3,3,4,4,5,5,6,6,7,7,8,8,9,9,10,10,12,12,13,13,14,14],"right_children":[2,4,6,8,10,12,14,16,18,20,22,-1,24,26,28,-1,-1,-1,-1,-1,-1,-1,-1,-1,-1,-1,-1,-1,-1],"split_conditions":[2E0,3E0,4E0,1.06E2,1E0,9.1E1,3E1,1.03E2,2E0,1.12E2,2E1,-3.0592018E-1,1E0,3.7E1,5.5E1,1.4302613E-2,3.6445647E-1,-8.64779E-2,2.9315345E-3,-1.750622E-2,5.5500437E-2,-2.9993605E-2,-1.8141691E-1,1.1852383E-1,-6.1125245E-2,1.9958667E-1,8.90388E-3,8.7530255E-2,5.011152E-1],"split_indices":[13,3,3,5,28,5,8,5,0,5,8,0,2,5,5,0,0,0,0,0,0,0,0,0,0,0,0,0,0],"split_type":[0,0,0,0,0,0,0,0,0,0,0,0,0,0,0,0,0,0,0,0,0,0,0,0,0,0,0,0,0],"sum_hessian":[3.2247507E3,2.9953916E3,2.2935927E2,1.8738793E3,1.1215123E3,1.5943448E2,6.99248E1,1.3312621E3,5.426171E2,8.797996E2,2.417127E2,4.8043022E1,1.1139146E2,6.6067055E1,3.8577437E0,1.2854652E3,4.5796906E1,1.3492532E2,4.0769183E2,6.227758E2,2.5702383E2,1.644069E2,7.7305786E1,3.878054E1,7.2610916E1,1.3298596E1,5.2768456E1,1.8485144E0,2.0092292E0],"tree_param":{"num_deleted":"0","num_feature":"30","num_nodes":"29","size_leaf_vector":"1"}},{"base_weights":[-1.0054342E-3,-3.5329934E-3,5.01014E-1,-1.1972295E-3,-5.7177037E-1,8.5106444E-1,1.610127E-1,-5.687178E-3,3.615152E-1,2.8430673E-1,-9.4670296E-1,3.444652E-1,-1.7351707E-2,-7.724676E-2,4.8764402E-1,-1.0717782E-3,-2.16168E-1,-2.8349274E-1,1.866888E-1,-8.5990615E-2,-3.596978E-1,3.2078136E-2,-1.15352705E-1,5.066896E-2,1.938981E-1],"categories":[],"categories_nodes":[],"categories_segments":[],"categories_sizes":[],"default_left":[0,0,0,0,0,0,0,0,0,0,0,0,0,0,0,0,0,0,0,0,0,0,0,0,0],"id":47,"left_children":[1,3,5,7,9,11,13,15,17,-1,19,-1,-1,21,23,-1,-1,-1,-1,-1,-1,-1,-1,-1,-1],"loss_changes":[4.073715E0,4.238602E0,1.7771358E0,5.184005E0,8.344915E0,2.1436481E0,7.685808E-1,4.750078E0,1.3849171E1,0E0,1.4858141E0,0E0,0E0,3.9728338E-1,9.8118305E-2,0E0,0E0,0E0,0E0,0E0,0E0,0E0,0E0,0E0,0E0],"parents":[2147483647,0,0,1,1,2,2,3,3,4,4,5,5,6,6,7,7,8,8,10,10,13,13,14,14],"right_children":[2,4,6,8,10,12,14,16,18,-1,20,-1,-1,22,24,-1,-1,-1,-1,-1,-1,-1,-1,-1,-1],"split_conditions":[3.49E2,3.35E2,8.8E1,3.01E2,1E0,2E0,1.5E1,2.92E2,6.614E1,2.8430673E-1,3E0,3.444652E-1,-1.7351707E-2,9.148E1,9.01E1,-1.0717782E-3,-2.16168E-1,-2.8349274E-1,1.866888E-1,-8.5990615E-2,-3.596978E-1,3.2078136E-2,-1.15352705E-1,5.066896E-2,1.938981E-1],"split_indices":[5,5,12,5,14,2,8,5,12,0,3,0,0,12,12,0,0,0,0,0,0,0,0,0,0],"split_type":[0,0,0,0,0,0,0,0,0,0,0,0,0,0,0,0,0,0,0,0,0,0,0,0,0],"sum_hessian":[3.2080767E3,3.1929937E3,1.5083069E1,3.1809204E3,1.2073201E1,6.691092E0,8.391977E0,3.142998E3,3.792226E1,2.0871499E0,9.986052E0,4.8440876E0,1.8470044E0,5.2938857E0,3.0980914E0,3.1347307E3,8.267495E0,5.873393E0,3.2048866E1,3.3520885E0,6.633963E0,3.7175663E0,1.5763193E0,1.7158389E0,1.3822525E0],"tree_param":{"num_deleted":"0","num_feature":"30","num_nodes":"25","size_leaf_vector":"1"}},{"base_weights":[-6.041027E-4,8.7749906E-4,-2.567665E-1,-3.905613E-1,4.0399707E-3,-2.9121444E-1,-3.667758E-3,2.247731E-3,2.6138884E-1,1.2072896E-1,-2.5866205E-1,-1.0640158E-2,1.0195414E-2],"categories":[],"categories_nodes":[],"categories_segments":[],"categories_sizes":[],"default_left":[0,0,0,0,0,0,0,0,0,0,0,0,0],"id":48,"left_children":[1,3,-1,5,7,-1,9,11,-1,-1,-1,-1,-1],"loss_changes":[4.0614147E0,3.9628022E0,0E0,5.7550116E0,4.933451E0,0E0,6.063143E0,3.7952232E0,0E0,0E0,0E0,0E0,0E0],"parents":[2147483647,0,0,1,1,3,3,4,4,6,6,7,7],"right_children":[2,4,-1,6,8,-1,10,12,-1,-1,-1,-1,-1],"split_conditions":[3E0,2E0,-2.567665E-1,2.5E1,1E1,-2.9121444E-1,8.7E1,1.5E1,2.6138884E-1,1.2072896E-1,-2.5866205E-1,-1.0640158E-2,1.0195414E-2],"split_indices":[13,7,0,5,3,0,12,8,0,0,0,0,0],"split_type":[0,0,0,0,0,0,0,0,0,0,0,0,0],"sum_hessian":[3.2034614E3,3.198919E3,4.5424867E0,2.4655499E1,3.1742634E3,9.26039E0,1.5395108E1,3.1687175E3,5.545764E0,1.0812126E1,4.582982E0,1.4479343E3,1.7207832E3],"tree_param":{"num_deleted":"0","num_feature":"30","num_nodes":"13","size_leaf_vector":"1"}},{"base_weights":[-7.2257797E-4,2.6924534E-2,-4.365016E-2,-3.2960142E-3,1.9415703E-1,-5.437358E-1,-2.7900921E-2,1.8122038E-2,-2.5799775E-1,9.16512E-1,7.177703E-2,-3.9115388E-2,-6.82773E-1,2.1531437E-1,-5.4309487E-2,1.6028196E-5,1.1099336E-1,-1.3997817E-1,2.2526057E-2,3.5467723E-1,-2.3487426E-2,-1.06916405E-1,6.9589235E-2,-2.5118724E-1,1.4944108E-1,-2.3015793E-1,-2.0797206E-2,1.9626494E-2,1.9416599E-1,-4.439369E-2,1.3210018E-2],"categories":[],"categories_nodes":[],"categories_segments":[],"categories_sizes":[],"default_left":[0,0,0,0,0,0,0,0,0,0,0,0,0,0,0,0,0,0,0,0,0,0,0,0,0,0,0,0,0,0,0],"id":49,"left_children":[1,3,5,7,9,11,13,15,17,19,21,23,25,27,29,-1,-1,-1,-1,-1,-1,-1,-1,-1,-1,-1,-1,-1,-1,-1,-1],"loss_changes":[3.7997377E0,9.842597E0,9.862851E0,9.0076475E0,2.628432E1,2.656146E0,7.828181E0,9.6841955E0,8.934009E0,1.1486111E1,1.7639042E1,4.414008E0,1.4961777E0,7.687403E0,1.0126162E1,0E0,0E0,0E0,0E0,0E0,0E0,0E0,0E0,0E0,0E0,0E0,0E0,0E0,0E0,0E0,0E0],"parents":[2147483647,0,0,1,1,2,2,3,3,4,4,5,5,6,6,7,7,8,8,9,9,10,10,11,11,12,12,13,13,14,14],"right_children":[2,4,6,8,10,12,14,16,18,20,22,24,26,28,30,-1,-1,-1,-1,-1,-1,-1,-1,-1,-1,-1,-1,-1,-1,-1,-1],"split_conditions":[1E0,1.66E2,6.75E1,1.36E2,1.82E2,2.018E3,4E0,3E1,2E0,2E0,2E0,7.3E1,1.2E1,1E0,9E0,1.6028196E-5,1.1099336E-1,-1.3997817E-1,2.2526057E-2,3.5467723E-1,-2.3487426E-2,-1.06916405E-1,6.9589235E-2,-2.5118724E-1,1.4944108E-1,-2.3015793E-1,-2.0797206E-2,1.9626494E-2,1.9416599E-1,-4.439369E-2,1.3210018E-2],"split_indices":[13,5,12,5,5,6,7,8,2,2,0,5,7,21,7,0,0,0,0,0,0,0,0,0,0,0,0,0,0,0,0],"split_type":[0,0,0,0,0,0,0,0,0,0,0,0,0,0,0,0,0,0,0,0,0,0,0,0,0,0,0,0,0,0,0],"sum_hessian":[3.199612E3,1.9464147E3,1.2531974E3,1.6493425E3,2.9707202E2,3.723851E1,1.2159589E3,1.5222632E3,1.2707936E2,4.2097874E1,2.5497415E2,8.320713E0,2.8917797E1,1.1839764E2,1.0975613E3,1.448861E3,7.3402214E1,7.789583E1,4.9183537E1,3.3074207E1,9.023665E0,6.90868E1,1.8588736E2,3.1228075E0,5.1979055E0,2.5199356E1,3.7184427E0,8.874885E1,2.964879E1,5.6187897E2,5.356823E2],"tree_param":{"num_deleted":"0","num_feature":"30","num_nodes":"31","size_leaf_vector":"1"}},{"base_weights":[-6.233295E-4,7.3129437E-3,-1.5980563E-1,3.5629554E-3,3.2949507E-1,-5.414897E-2,-4.0102988E-1,-1.275349E-2,8.3881E-2,7.662464E-1,9.236416E-2,2.627557E-1,-3.2173723E-1,3.0641222E-2,-1.0105256E0,3.2809626E-2,-1.2273807E-2,-9.924624E-3,3.0159768E-1,4.0698156E-2,3.079522E-1,-2.1890827E-2,2.1896644E-1,-2.5078803E-1,1.3658589E-1,-2.9888326E-1,2.085209E-1,-1.9197692E-1,1.463246E-1,-4.5267576E-1,2.0563882E-3],"categories":[],"categories_nodes":[],"categories_segments":[],"categories_sizes":[],"default_left":[0,0,0,0,0,0,0,0,0,0,0,0,0,0,0,0,0,0,0,0,0,0,0,0,0,0,0,0,0,0,0],"id":50,"left_children":[1,3,5,7,9,11,13,15,17,19,21,23,25,27,29,-1,-1,-1,-1,-1,-1,-1,-1,-1,-1,-1,-1,-1,-1,-1,-1],"loss_changes":[4.021732E0,3.6624758E0,3.8313906E0,3.9306116E0,3.5414248E0,9.09774E0,1.21051655E1,8.577589E0,5.4612545E1,1.8524666E0,2.5557423E0,1.0790384E1,4.0526485E1,8.844246E0,9.672951E0,0E0,0E0,0E0,0E0,0E0,0E0,0E0,0E0,0E0,0E0,0E0,0E0,0E0,0E0,0E0,0E0],"parents":[2147483647,0,0,1,1,2,2,3,3,4,4,5,5,6,6,7,7,8,8,9,9,10,10,11,11,12,12,13,13,14,14],"right_children":[2,4,6,8,10,12,14,16,18,20,22,24,26,28,30,-1,-1,-1,-1,-1,-1,-1,-1,-1,-1,-1,-1,-1,-1,-1,-1],"split_conditions":[1.2E1,1.9888E2,1.52E2,1.51E2,1E0,1E0,9.832E1,8.03E1,1.005E2,2.05E2,8.7E1,2.018E3,1.01E2,1E0,1E0,3.2809626E-2,-1.2273807E-2,-9.924624E-3,3.0159768E-1,4.0698156E-2,3.079522E-1,-2.1890827E-2,2.1896644E-1,-2.5078803E-1,1.3658589E-1,-2.9888326E-1,2.085209E-1,-1.9197692E-1,1.463246E-1,-4.5267576E-1,2.0563882E-3],"split_indices":[7,12,5,5,13,13,12,12,12,12,5,6,5,2,13,0,0,0,0,0,0,0,0,0,0,0,0,0,0,0,0],"split_type":[0,0,0,0,0,0,0,0,0,0,0,0,0,0,0,0,0,0,0,0,0,0,0,0,0,0,0,0,0,0,0],"sum_hessian":[3.181552E3,3.0313723E3,1.5017958E2,2.9974946E3,3.3877808E1,1.0528781E2,4.489177E1,2.4920757E3,5.0541885E2,1.1136012E1,2.2741796E1,4.821036E1,5.707745E1,2.6835464E1,1.8056305E1,4.6642615E2,2.0256495E3,4.4934552E2,5.6073338E1,3.6978178E0,7.438194E0,1.8761728E1,3.980069E0,6.6900797E0,4.1520283E1,3.4326054E1,2.2751398E1,1.0715775E1,1.611969E1,1.1795025E1,6.2612796E0],"tree_param":{"num_deleted":"0","num_feature":"30","num_nodes":"31","size_leaf_vector":"1"}},{"base_weights":[-2.4363153E-4,2.2120432E-3,-5.131468E-1,-9.2417754E-2,1.4749273E-2,-7.677944E-1,7.0263155E-2,3.1786194E-1,-1.7793246E-1,4.666714E-1,3.790503E-4,-2.6470387E-1,3.6081627E-3,3.2993507E-1,-1.367986E-1,-1.602588E-2,2.7656445E-1,3.5623062E-2,-9.8604985E-2,2.2150253E-1,-2.3525889E-1,-2.8998578E-1,2.0292504E-3,-4.969457E-2,1.6276577E-1],"categories":[],"categories_nodes":[],"categories_segments":[],"categories_sizes":[],"default_left":[0,0,0,0,0,0,0,0,0,0,0,0,0,0,0,0,0,0,0,0,0,0,0,0,0],"id":51,"left_children":[1,3,5,7,9,11,13,15,17,19,21,-1,-1,23,-1,-1,-1,-1,-1,-1,-1,-1,-1,-1,-1],"loss_changes":[3.9813614E0,3.7338147E0,2.291637E0,1.2974348E1,1.8046335E1,9.547663E-1,9.010727E-1,1.4371403E1,1.3694313E1,2.9680878E1,1.6641718E1,0E0,0E0,5.3855956E-1,0E0,0E0,0E0,0E0,0E0,0E0,0E0,0E0,0E0,0E0,0E0],"parents":[2147483647,0,0,1,1,2,2,3,3,4,4,5,5,6,6,7,7,8,8,9,9,10,10,13,13],"right_children":[2,4,6,8,10,12,14,16,18,20,22,-1,-1,24,-1,-1,-1,-1,-1,-1,-1,-1,-1,-1,-1],"split_conditions":[1E0,7.48E1,1.5E2,3E0,7.59E1,2.05E2,9E0,2.5E1,2.018E3,2.3E1,7.65E1,-2.6470387E-1,3.6081627E-3,9.945E1,-1.367986E-1,-1.602588E-2,2.7656445E-1,3.5623062E-2,-9.8604985E-2,2.2150253E-1,-2.3525889E-1,-2.8998578E-1,2.0292504E-3,-4.969457E-2,1.6276577E-1],"split_indices":[4,12,5,7,12,12,7,8,6,8,12,0,0,12,0,0,0,0,0,0,0,0,0,0,0],"split_type":[0,0,0,0,0,0,0,0,0,0,0,0,0,0,0,0,0,0,0,0,0,0,0,0,0],"sum_hessian":[3.1591052E3,3.1450432E3,1.4062132E1,3.6718613E2,2.777857E3,9.569276E0,4.492856E0,6.2863693E1,3.0432245E2,8.463815E1,2.6932188E3,8.229004E0,1.3402714E0,3.258211E0,1.2346452E0,3.9497032E1,2.336666E1,1.0260641E2,2.0171603E2,6.9872574E1,1.4765575E1,1.6680256E1,2.6765386E3,1.0445075E0,2.2137034E0],"tree_param":{"num_deleted":"0","num_feature":"30","num_nodes":"25","size_leaf_vector":"1"}},{"base_weights":[-6.8161474E-4,-3.849227E-1,2.3274492E-3,-2.819082E-1,-8.2177326E-2,-1.2877151E-2,7.793348E-2,2.4623467E-1,-2.5924146E-1,1.6217116E-3,-2.5991026E-1,1.1365457E-1,-5.224703E-1,1.6458571E-1,-2.2716995E-1,9.980366E-3,-2.701295E-2,-3.0064818E-1,-3.5561535E-3,1.458276E-1,1.758106E-2,3.3600837E-1,-2.0605099E-1],"categories":[],"categories_nodes":[],"categories_segments":[],"categories_sizes":[],"default_left":[0,0,0,0,0,0,0,0,0,0,0,0,0,0,0,0,0,0,0,0,0,0,0],"id":52,"left_children":[1,3,5,-1,7,9,11,13,-1,15,17,19,21,-1,-1,-1,-1,-1,-1,-1,-1,-1,-1],"loss_changes":[3.6495671E0,4.0422096E0,3.6016538E0,0E0,4.569135E0,9.343743E0,1.1309921E1,4.2764945E0,0E0,7.1535854E0,2.6616257E1,1.0139733E1,8.770041E0,0E0,0E0,0E0,0E0,0E0,0E0,0E0,0E0,0E0,0E0],"parents":[2147483647,0,0,1,1,2,2,4,4,5,5,6,6,7,7,9,9,10,10,11,11,12,12],"right_children":[2,4,6,-1,8,10,12,14,-1,16,18,20,22,-1,-1,-1,-1,-1,-1,-1,-1,-1,-1],"split_conditions":[2E0,2.5E1,4E0,-2.819082E-1,5.1E1,2E0,1E0,1E0,-2.5924146E-1,3E0,9.1E1,2E0,1.8E1,1.6458571E-1,-2.2716995E-1,9.980366E-3,-2.701295E-2,-3.0064818E-1,-3.5561535E-3,1.458276E-1,1.758106E-2,3.3600837E-1,-2.0605099E-1],"split_indices":[7,5,3,0,5,13,15,13,0,3,5,0,5,0,0,0,0,0,0,0,0,0,0],"split_type":[0,0,0,0,0,0,0,0,0,0,0,0,0,0,0,0,0,0,0,0,0,0,0],"sum_hessian":[3.1547273E3,2.3527073E1,3.1312002E3,7.5634265E0,1.5963646E1,2.6076282E3,5.235722E2,1.1724595E1,4.239051E0,2.4640042E3,1.4362386E2,4.9493658E2,2.8635605E1,9.357952E0,2.3666425E0,1.8321232E3,6.31881E2,3.5214054E1,1.08409805E2,6.272855E1,4.3220804E2,2.0760093E0,2.6559597E1],"tree_param":{"num_deleted":"0","num_feature":"30","num_nodes":"23","size_leaf_vector":"1"}},{"base_weights":[-1.3469489E-3,-1.1270513E-5,-2.5184968E-1,2.7747664E-3,-3.7800035E-1,-5.209996E-2,2.1636438E-2,-8.5711485E-1,1.4614901E-1,5.6224186E-3,-1.2478252E-1,1.5525536E-1,3.8214375E-3,-3.408541E-1,1.03095345E-1,-1.10627145E-1,2.3736443E-1],"categories":[],"categories_nodes":[],"categories_segments":[],"categories_sizes":[],"default_left":[0,0,0,0,0,0,0,0,0,0,0,0,0,0,0,0,0],"id":53,"left_children":[1,3,-1,5,7,9,11,13,15,-1,-1,-1,-1,-1,-1,-1,-1],"loss_changes":[3.5214849E0,3.3094273E0,0E0,3.229997E0,5.8995676E0,2.058353E1,1.0240629E1,4.4646664E0,4.2227426E0,0E0,0E0,0E0,0E0,0E0,0E0,0E0,0E0],"parents":[2147483647,0,0,1,1,3,3,4,4,5,5,6,6,7,7,8,8],"right_children":[2,4,-1,6,8,10,12,14,16,-1,-1,-1,-1,-1,-1,-1,-1],"split_conditions":[3E0,1E0,-2.5184968E-1,8.5E1,1.7E1,8.03E1,8.55E1,1.05E2,3E0,5.6224186E-3,-1.2478252E-1,1.5525536E-1,3.8214375E-3,-3.408541E-1,1.03095345E-1,-1.10627145E-1,2.3736443E-1],"split_indices":[13,22,0,12,8,12,12,5,3,0,0,0,0,0,0,0,0],"split_type":[0,0,0,0,0,0,0,0,0,0,0,0,0,0,0,0,0],"sum_hessian":[3.1445913E3,3.1405867E3,4.004823E0,3.118593E3,2.1993496E1,7.972812E2,2.321312E3,1.1158491E1,1.0835005E1,6.6814026E2,1.2914091E2,3.991274E1,2.2813992E3,9.097876E0,2.0606155E0,6.2635994E0,4.571406E0],"tree_param":{"num_deleted":"0","num_feature":"30","num_nodes":"17","size_leaf_vector":"1"}},{"base_weights":[-1.2800429E-3,-3.4691528E-3,4.6125594E-1,1.1433023E-1,-1.1348694E-2,7.9867107E-1,1.5465364E-1,-7.545874E-2,4.99329E-1,1.244949E-2,-8.840234E-2,3.1517383E-1,7.1367635E-3,-5.0683957E-2,4.4523504E-1,1.1630131E-1,-6.406172E-2,3.6650324E-1,7.745539E-2,-1.5635219E-3,7.2683424E-2,-9.684082E-2,3.0517306E-3,3.673836E-2,-1.03584684E-1,5.241093E-2,1.7481759E-1],"categories":[],"categories_nodes":[],"categories_segments":[],"categories_sizes":[],"default_left":[0,0,0,0,0,0,0,0,0,0,0,0,0,0,0,0,0,0,0,0,0,0,0,0,0,0,0],"id":54,"left_children":[1,3,5,7,9,11,13,15,17,19,21,-1,-1,23,25,-1,-1,-1,-1,-1,-1,-1,-1,-1,-1,-1,-1],"loss_changes":[3.1844215E0,2.9061916E0,1.4090848E0,1.4381171E1,5.3817973E0,1.3048515E0,